/* kernels.cpp
 * Kernels used to classify cifar10 images
 * 
 * authors: Rafael COSTA SALES
 *          Duc Huy DAO
 */

#include "../include/kernels.h"

const float conv1_weights[] = {0.77616161,0.96067274,0.50133085,-0.08393140,0.08496076,-0.23699894,-0.70194745,-0.49823603,-0.83126968,-0.37543604,-0.23554605,-0.14564706,-0.19817476,-0.07707664,0.17299858,0.11308511,0.36881310,0.19090337,-0.59003842,-1.02304041,-0.99082404,0.34395197,-0.21196753,0.16639720,0.68924624,0.58054835,0.73848021,-0.24849854,0.53290266,-0.11455914,0.85049045,-0.90770817,-0.04845633,-0.22211803,-0.09837668,0.25318334,0.12975723,0.27774885,-0.13843192,0.65684795,-0.85103273,0.03315065,-0.27159825,0.01921928,0.23348717,-0.22082801,0.21448344,-0.14827669,0.42152053,-0.31266677,-0.09107299,-0.34703499,0.36359277,0.16677771,0.16051300,0.18232635,-0.36479247,0.38519537,-0.04683606,-0.39256269,-0.66449833,1.35372913,-0.65118140,-0.67123449,-0.09752848,0.41828996,-0.44099534,-0.33861619,1.21986139,-1.28876436,0.33274323,0.76905322,0.18518658,0.18145332,-0.36225024,0.91607881,-0.61605281,-0.37228322,0.63810551,0.44465435,-1.25522435,0.85052759,-0.07354859,-0.36068076,1.10835779,-0.67868120,-0.74975568,1.37038946,-0.92819416,-0.52210534,-0.08191305,-0.03619090,0.11812910,-0.40887779,0.01110709,0.42698255,-0.67543662,0.15631156,0.63824123,-0.76557523,0.14561173,0.29485717,-0.81981564,0.72291416,0.36281544,-0.87499452,1.03601825,-0.09913808,-0.13435844,-0.22770502,-0.20940435,-0.29209790,0.25559002,-0.24223259,0.19263430,0.31244415,-0.09235506,0.35385176,-0.04049794,0.18635587,-0.23313102,0.30619389,0.16174056,-0.33189619,-0.26236719,-0.15875518,0.64674646,-0.33822501,0.29828802,0.39855751,0.34688163,0.50618267,-0.73585647,-0.92765129,-0.79409116,0.22237605,0.20143671,0.15653650,-0.37450209,-0.37073749,-0.21286883,-0.05282554,-0.34783509,0.48285347,0.34997830,0.36294386,0.65583080,-0.54837006,-0.35968405,0.00447121,-0.67100567,-0.64785671,-0.26779798,-0.68041319,-0.56985217,-0.73502266,1.01633596,0.97635704,0.12808722,0.67472863,0.87824202,-0.10837913,0.18162090,-0.00895650,-0.12974460,-0.10381141,-0.00024765,-0.00347915,-0.05664906,-0.10780249,0.11075931,-0.48868620,-0.10919153,-0.20799787,-0.14792038,0.10323618,-0.14825207,-0.10867842,-0.18543905,0.04177838,-0.00325711,0.01795159,0.32395524,0.08560906,0.20534545,-0.00075807,-0.20262411,-0.44239795,-0.22613932,0.15282650,0.46708348,0.13536480,0.17214148,-1.26542735,0.13478978,0.35493293,-0.04592787,0.25029203,0.26933032,0.42606983,0.58200693,0.13116194,-1.36560237,0.04904921,0.10276180,-0.53593641,-0.01531956,-0.13076933,0.21674660,-0.18489170,0.00966312,-0.55385083,-0.00535164,0.03368324,0.16703872,0.16118328,0.13416687,-0.06858845,-0.45630646,0.14603394,0.68109935,0.13649669,-0.43977508,-0.19283575,0.18867897,0.13253978,0.07760303,0.14056066,0.00476627,0.12492202,-0.17732720,-0.12270585,-0.13423325,0.08322304,-0.01075301,-0.65672910,-0.25431511,0.36771637,0.12626414,-0.87858409,0.26574338,0.54482681,0.52830899,0.09620086,-0.63978583,-0.27153346,0.53829360,-0.10341368,-1.00403714,0.76164091,0.75838167,-0.28318402,0.06518054,0.53352243,0.66634905,-0.76262128,-0.01608898,0.93527871,-0.45037696,-0.72564059,0.16299438,0.05586591,0.42211118,-0.26487321,-0.58223289,0.31006205,0.88123000,-0.36753878,-0.82880157,0.21200815,0.04569865,-0.15549229,0.21929029,0.20674019,0.06192071,0.18031950,-0.18239333,-0.28914267,0.14356533,0.12008387,0.09670097,-0.21473926,0.18442601,-0.04311255,-0.33696026,0.13514371,-0.11619804,-0.11743491,-0.70892125,-0.44541708,0.51918334,-0.78747272,-0.30385467,0.26633111,-0.33849516,0.67224628,0.83221859,-0.10810467,0.03867428,0.20743138,-0.34279582,0.12825973,0.20499700,-0.03003887,-0.01635370,0.12866111,0.08544242,-0.53652590,-0.51187038,0.00169315,0.02218862,-0.25718945,0.05742074,-0.27283773,-0.47420093,0.13326602,-0.00430304,0.09572792,0.08179514,0.26949424,0.47342092,0.42483980,0.06753711,0.10010157,0.46402156,0.91447329,0.70262802,-0.98270184,-0.66148096,0.66760844,-0.18404455,-0.89270276,0.04631087,0.06056598,0.46991655,0.04135899,-0.32639053,-0.18985757,0.16845344,0.11317339,-0.16655521,-0.25845599,-0.20716918,-0.51218551,-0.71199220,0.73959899,0.47022981,-0.32197630,0.20899679,0.81367952,-0.09882499,0.10362466,0.41068631,-0.43861508,0.34319457,-0.77902549,0.35160658,-0.07745613,0.28798661,-0.22507955,0.39010268,-0.30289754,-0.29872653,-0.33091274,-0.85405302,1.06070960,-0.70762014,0.65800071,0.20144030,0.10141011,0.35567787,-0.52752596,0.36537713,-0.59018642,0.19991872,-0.17219318,0.37014517,-0.18082325,0.21133176,0.17032792,-0.10464429,-0.62795180,-0.44161636,-0.12187453,0.30732536,0.42943722,0.16517998,0.31487173,0.16066885,-0.17777966,-0.46565226,-0.50949603,-0.34152746,-0.31280270,0.43253520,0.41805822,0.40167338,0.41194919,0.38665268,0.56063259,-0.04735769,-0.02892837,-0.22491542,-0.48426569,-0.59361142,-0.46866497,0.75945026,-0.03078510,0.11178831,0.19721813,-0.62410587,-0.01193022,-0.11438387,-0.28165734,-1.05442131,0.22490908,0.45839036,-0.15817267,0.33950782,0.09807886,0.06095355,0.15400869,0.12589198,-1.15898693,0.02787844,-0.07587712,0.39883307,0.60080939,-0.07260747,0.47437894,0.10987824,-0.19211471,0.19100097,-0.66175604,0.43642670,-0.73422515,1.14160645,-0.55127174,0.27534375,-0.44243863,0.34698382,0.59065604,-0.50095957,0.36261582,-0.36947340,0.90380830,-0.82734829,0.47267395,-0.94859803,0.30200532,-0.24753015,-0.74045593,0.54469508,-0.71086657,1.48498130,-0.38117459,0.53334200,-0.31810266,-0.06959964,0.33479446,0.37427276,-0.57243174,0.16407229,0.26511264,-0.09842893,-0.21959585,-0.26991272,-0.36405849,0.47778294,0.29764882,0.27501813,0.17966372,-0.22943610,0.15360089,0.25947052,-0.09893835,0.14729164,-0.61808848,-0.55383605,0.20699805,-0.67682195,-0.66190720,0.13232437,-0.08436739,0.12272573,0.31708169,0.10815506,-0.38136163,-0.10308734,-0.29729092,-0.24527745,0.12559619,-0.40357599,0.54520589,0.26007715,0.10309126,-0.19779406,0.11546534,-0.10666250,-0.05563892,-0.12727346,0.04564613,0.36147389,-0.50499833,0.27795228,0.31931850,0.25714177,0.28463653,0.44946170,-0.36382317,0.47953990,0.39975235,-1.36234081,0.25350258,0.26074055,0.45434153,-0.00279024,-0.06457925,0.04310269,-0.34680897,0.24383479,-0.36086831,0.14070506,0.16377339,0.13333200,0.03913940,0.04748853,0.09801546,0.02419182,0.87938547,0.05407025,-0.41156465,-0.34089851,-0.47011223,-0.00539649,-0.13601235,-0.09134188,0.38435626,0.93458480,0.19578268,0.36882728,0.29426050,0.11776604,0.38554832,0.23989831,-0.31920618,-1.06062388,-0.29332167,-0.36301392,-0.57084614,-0.49441180,0.00090338,0.82873589,0.39510444,0.02059452,-0.00560014,0.33914858,-0.01207580,-0.49634975,-0.32019740,0.36154988,0.50783145,-0.18626006,0.21192046,-0.25158146,-0.16460523,0.24156702,-0.28642318,-0.38678983,1.13421226,0.41192415,-0.63981575,-0.26719633,-0.22425827,0.43990564,-0.00817281,-0.01765387,-1.01911688,0.29777965,1.05208087,-0.43728596,-0.97499037,0.27029657,1.06050181,-0.46853113,-0.33011332,0.34744385,0.27977696,-0.08453935,0.08932080,0.32600149,-0.54209167,-0.03592661,-0.12766449,0.36432850,0.07767726,-0.03295442,-0.07959983,-0.16812693,-0.04931910,-0.00197178,-0.02769681,-0.12443674,-0.58278555,-0.70216358,-0.52155942,-0.40956768,0.21564862,0.54529077,0.02533006,0.63204682,0.69742131,0.13140410,-0.26010010,-0.47502381,-0.15483002,0.01020601,0.04675923,-0.22485203,-0.23142883,-0.33573466,-0.18297957,-0.30544817,-0.25552237,-0.03125595,-0.07979603,-0.09140652,-0.33993515,-0.00196628,-0.38648519,0.21026339,-0.05202333,0.06037065,0.25813034,0.08174797,-0.05743918,-0.02581422,0.29555041,0.10388792,0.09581776,0.15235388,0.49460068,-0.00344370,-0.08608630,0.00671601,-0.12105548,0.18656497,0.32271630,-0.22465911,-0.12494995,0.37967244,-0.30063802,-0.15088062,0.47747037,-0.32131016,-0.35085031,0.57470804,0.45756242,0.27671310,-0.65176707,0.46379098,0.33210826,-0.65170765,0.51113403,0.02427913,-0.67530966,-0.16818573,0.37210068,-0.31767559,-0.07123928,0.55905455,-0.32513297,-0.21439916,0.78102839,-0.59008580,-0.08599702,0.75028562,0.07020023,1.02340710,0.04759385,-0.25597244,-0.52049768,-0.95270807,-0.03904054,0.64578307,0.26648003,0.36103684,0.56982261,-0.40497407,-0.23801109,-0.01768335,-0.93978518,-0.26942349,-0.82273757,-0.56070727,-0.28901881,-0.94319916,0.29755884,0.32580543,0.32560471,1.25071049,0.36509263,0.56790310,0.67699552,-0.13527194,0.57267922,-0.06033427,-1.02909005,0.31899774,-0.57959586,-0.29610953,0.02436678,-0.00859691,-0.06362951,-0.10732443,-0.07012679,-0.13289300,-0.04511364,-0.21481691,0.31842565,-0.21851708,-0.05208092,-0.12355313,0.02130398,0.19178952,0.05931092,0.01332344,-0.00810165,-0.09047144,-0.88437831,1.09962547,-0.55017352,-0.59523308,1.04877460,-0.46792439,-0.24305019,0.67375165,-0.12087538,-0.09186421,0.19990621,-0.33274335,0.29434207,0.43128064,-0.11065445,-0.05946801,-0.06957512,-0.36011013,0.07511798,0.32216117,0.11627459,-0.41404286,0.06921414,-0.30321932,-0.16167776,0.18200731,0.08476521,0.07827950,-0.24314058,-0.14758110,-0.05232550,-0.29758936,-0.17846073,0.27878225,-0.07296633,0.45775449,0.15387541,0.68109196,0.27705550,0.39373735,0.78210199,-0.45527273,-0.03604745,-0.38233730,-1.12669861,-0.86901832,-0.36754739,0.18685265,-0.56528366,0.50193983,0.47876984,0.05573018,0.57195193,-0.03056848,-0.06151725,0.07386729,0.05787816,0.04414461,0.18787974,-0.07750255,-0.16621368,0.08612639,-0.02304345,-0.38799760,0.02640813,0.42943808,0.17794497,0.33068165,-0.10841280,0.35254055,-0.16192689,-0.37873810,-0.18111689,0.43944791,0.24565400,0.42390671,0.33463916,-0.47073659,0.07878076,-0.54727209,-0.56597769,-0.01929099,0.67217761,-0.66845787,-0.77999580,0.33766451,0.56171220,0.37034094,-0.80039483,0.39183706,-0.23248595,0.37133110,0.05676763,-0.58560288,-0.09775162,0.45654813,1.22776926,-1.06120443,-0.38188133,0.13336731,0.11497246,-0.30927688,-0.44801146,0.56304193,-0.09973488,0.01896658,-0.39717239,0.38131690,-0.29906595,0.54704827,-0.55971897,-0.45447862,-0.12374011,-0.22941181,0.08580943,-0.21916939,0.18129879,0.16446003,1.09643722,-0.06884543,-0.20535199,0.19095367,-0.16527586,0.03476226,-0.18930024,-0.20446560,-0.21309175,0.15106249,-0.14418761,-0.21717216,-0.11535516,-0.12812979,0.27359784,0.17685963,0.10460541,0.28809345,-0.92827708,-0.16441800,0.78095377,0.55005759,-1.11717439,-0.46457273,0.61289942,0.33813599,-0.13067100,-0.04478123,1.21350622,-0.33602172,0.09148485,0.09906647,-0.67276329,-0.55523372,0.13765678,0.06159260,-0.39889899,-0.15707621,0.41621134,0.44762474,-0.70866573,-0.02960725,0.30300331,0.22171477,-0.18103801,0.27540904,0.00908077,-0.29171297,0.05240700,-0.23245961,-0.10468150,-0.05351227,0.04816751,0.35958272,0.22310306,-1.04266989,-0.01318389,0.57837033,-0.29342130,-0.11310924,0.37783361,0.55960709,0.10785134,0.57780009,-0.43513909,-0.33993348,0.55433917,0.03707694,-0.55661482,-0.16656280,0.28038788,-0.67935109,-0.36574286,0.25050369,0.20244587,0.41202617,0.35946745,0.88356090,0.42328754,-0.30627093,-0.21638323,-0.42900172,-0.23040836,0.10507047,0.21326107,-0.01927052,0.57033431,0.21792129,-0.20865725,0.79364490,0.41162202,0.27776587,-0.05088995,-0.27048302,0.04063819,-0.76677549,-0.75752372,-0.09499885,-0.69941968,0.47167712,1.00307655,-0.89519459,-0.26765022,0.88071716,-0.22443147,-0.35445389,0.20771004,0.36284417,-0.17272008,-0.26669073,0.26830384,-0.11638458,-0.19018689,0.17694308,-0.04038226,-0.02773643,0.61299157,-0.37547493,-1.10522127,1.01104128,0.35131207,-0.92061019,0.34947211,0.41382316,-0.28734475,-0.23520559,-0.81347036,0.35190353,-0.93513012,0.45404846,0.77088040,0.64330697,0.88449484,-0.77890271,0.26756278,-0.32062694,0.08090863,-0.47803950,-0.12688974,0.09978578,-0.14218369,0.16592082,0.04375913,0.30192065,0.01212438,-0.23515148,-0.13069174,0.10774536,0.08246934,0.03700766,-0.08401660,-0.02688513,-0.42459485,-0.24966633,-0.27917293,-0.25442851,-0.54788172,0.11771705,0.32328340,-0.46778592,0.45476225,0.69634688,0.77587479,0.28893876,0.26650989,0.12000229,0.06441354,0.31275162,-0.27660781,-0.26077774,-0.41626975,-0.20458761,-0.26493913,-0.14419843,-0.12144119,0.25079805,0.12280951,-0.15303037,0.28657275,-1.15093899,-1.64769435,-0.95975316,0.58186197,0.32095253,0.25347263,0.76559633,0.97821319,0.95337206,0.94655234,1.14361751,0.87987786,-0.10699585,0.00123243,-0.16372806,-0.94059104,-0.92250270,-0.89168453,0.13757701,0.52929229,0.13581410,-0.41687781,-0.30175945,-0.10588901,0.13096614,-0.04028530,-0.03873584,-0.33304638,-1.26908195,0.40397960,-0.82095873,-0.75378829,1.16398036,-0.18947220,0.53879052,1.59976971,0.59147489,0.46981725,-0.11135718,0.26793483,-0.04429398,-0.58244389,-0.03656625,-0.35285208,-0.58363014,-0.11016968,0.66159052,-0.34243766,0.50106251,0.74407703,-0.30391818,0.26478803,-0.13960613,-1.22303712,-0.02839035,-0.09566397,0.02224885,-0.22356670,0.19754685,-0.25457686,-0.49815863,0.18731247,-0.36670154,-0.23094206,-0.37600628,-0.29565218,-0.01387753,0.33484325,-0.09465311,-0.32451773,0.47969645,0.11719789,-0.17687036,-0.23851846,-0.06000762,-0.29102147,0.33599040,0.14019015,-0.60039771,0.56478542,0.27985400,0.13802729,0.06289470,-0.05193311,0.02651602,0.02355124,0.06120037,0.02959676,0.11590634,0.02781402,0.03190156,-0.33989745,-0.32580757,-0.24025512,-0.62018287,-0.44633091,-0.26122370,-0.52907938,-0.30185702,-0.37754270,0.39100143,0.33037293,0.24086778,0.84924269,0.37360221,0.13641496,0.59151024,0.06246939,-0.42520598,-0.46829805,-0.37635308,0.34895498,0.06580170,0.04720675,0.55115217,-0.04106946,0.45638913,-0.13726452,-0.12881582,-0.04823688,0.12573403,0.12859008,0.10459022,0.06744588,-0.21292161,0.23204801,-0.15522663,-0.05954734,-0.09677024,0.36107248,0.41160911,0.29753137,-0.08840700,-0.45873794,-0.00605010,-0.16592562,0.14915577,0.74005354,-0.20879540,-0.53897685,0.28945732,-0.08670396,-0.25278896,-0.28333801,-0.18145223,-0.24909860,-0.26971483,0.60199177,-0.05938493,-0.28202543,0.76467091,0.46665621,-0.40639520,-0.57760543,-0.34465063,-0.19608092,0.37324172,-0.05554167,-0.05387131,0.22080773,0.26762778,-0.20686637,0.05330156,0.20165584,0.15105565,-0.15153658,0.02469560,-0.11978850,-0.11524333,0.06456903,-0.09134356,-0.53835708,0.15427616,0.48209691,-0.23125044,0.20450649,0.21483964,-0.61556584,-0.16692475,0.33018279,-0.38408503,0.06485528,-0.18962587,-0.04336667,0.25491667,0.06472974,-0.17607178,0.37327161,0.01333051,0.52492392,-0.10697614,-0.54425216,0.28017110,-0.36563751,-0.06710281,-1.05818033,-0.17704417,0.96947771,0.31879872,-0.13465971,-0.52612597,0.27210522,-0.34167343,-0.10042087,-0.42956904,0.07010815,0.77568269,-0.20045655,0.26881030,0.32718575,0.37570122,0.10725838,-0.24466102,0.10828585,-0.02324152,-0.53104526,0.14703925,1.12327349,-0.41816655,0.34615061,0.44042200,-1.03446269,0.00314452,0.03623509,-0.93859476,-0.41157633,-1.05381191,0.46605709,-0.30941209,-0.41379967,1.12457371,-0.19265969,0.09762794,0.80024314,0.36962748,-0.83164847,0.18771435,-0.26105800,-0.41764954,0.67332059,-0.02010591,0.30310184,0.11439341,-0.73361474,-0.52785438,0.09732252,-0.61085832,0.08423381,0.42220268,-0.68595940,0.11982779,0.64792782,0.14630125,0.32790595,0.13247798,0.80756438,0.42346707,-0.34254748,0.47264954,-0.32182082,-0.32280794,0.35709760,0.11219612,0.08763082,0.68798554,-0.00242647,-0.55687916,0.32709014,-0.70081133,-0.37195656,-0.11363668,-0.07516677,-0.12804164,-0.01046176,0.27061471,0.08903631,-0.22107512,0.08078944,-0.04317004,-0.55749977,-0.01624691,-0.46686563,-0.12974565,0.53158104,-0.20924522,-0.16445568,0.49593622,-0.31650788,-0.12932646,0.56470662,0.11661209,-0.27870798,0.51954335,-0.10956696,-0.38647827,0.54067630,-0.04764305,0.72475064,-0.88890141,1.04387295,-0.32615215,0.36351076,0.26908645,-0.38303587,0.11135605,-0.27366254,0.68575478,-1.15243769,-0.11703973,-0.03848587,0.57287318,-0.60583335,-0.09760609,0.41055366,-0.25582591,0.51291090,-0.46141732,0.80438816,-0.65658927,0.36600587,-0.29250365,-0.31272155,0.46833003,-0.25713888,0.48662463,-0.19556467,-0.12683946,0.13590218,-0.06774103,-0.01129760,-0.08813580,-0.11446973,-0.04506482,-0.15699557,-0.01439437,0.17447263,-0.02366256,-0.13596962,0.19103085,0.04517972,0.01411818,-0.13914157,0.36212134,-0.61797577,0.07906342,0.76719475,-0.54166669,-0.19108708,0.43247989,0.07906608,-0.35828108,0.26359540,-0.27637237,0.32501701,0.01540843,-0.60409582,0.21242563,0.17974939,-0.57195169,0.57507515,0.13738370,-0.75893980,0.11171064,0.86275840,-0.77855706,0.64487606,0.60237163,-1.00602472,0.17294927,-0.10521523,0.18804821,-0.03770800,0.15271737,-0.19713966,0.14752996,0.09599317,-0.33599472,0.18228468,-0.53934449,-0.49710482,-0.60717350,0.96210569,0.52160281,-0.36655757,1.19058561,0.75276274,-0.68654430,0.50764424,0.49363694,1.20943761,-1.46686268,-1.06611109,0.63103884,-1.72665870,-1.29636443,0.88716978,0.01167931,-0.03149440,-0.50466532,0.35944989,0.38566122,-0.33355328,0.67927068,0.57357293,-0.09572181,0.18928193,0.88580740,0.20414242,-0.36885241,1.10905540,0.51981187,-1.08676863,-0.20071130,-0.46176961,-0.28791818,-0.65899366,-0.61660135,0.04934356,-0.35878781,-0.50421888,0.88490117,0.17681652,0.11236124,-0.06663460,-0.15829139,0.35972562,-0.11698107,-0.39706260,-0.21973552,0.28793266,-0.08635591,0.25679773,0.47055292,0.36011726,0.55049706,0.00347195,-0.84435874,-0.28241387,0.07502930,-0.95216405,-0.32184798,-1.15080583,-0.38290709,-1.46502197,-0.32610261,2.00035667,0.37840387,-0.28380209,2.31864357,0.58461696,0.77125621,0.03468394,0.87513328,0.23849528,-1.27104723,-0.11540613,0.23549065,-1.49682832,-0.26619348,0.28216672,-0.20539241,-0.83675128,0.63585776,0.15883984,-0.68742132,0.60466880,0.40462726,-0.37502092,0.26600072,-0.12114291,-0.18456778,0.21667068,-0.26044831,-0.17425927,0.49739715,-0.07845654,-0.22944350,-0.57156253,0.46680164,0.63106912,-0.64901823,0.10246196,0.73308069,-0.73117047,-0.37059569,0.26630241,-0.43011951,0.01411850,-0.34405118,-0.50243330,-0.73035890,-0.23066980,0.53799486,0.62677967,0.60959864,-0.00829896,0.26508039,-0.21972124,0.01573591,-0.10533809,0.03381888,0.27272847,0.31443554,-0.01214318,-0.13856280,0.26204166,-0.11061852,-0.02141161,-0.29671076,0.06905551,0.03859990,0.05233408,-0.14749576,-0.45924836,-0.39104420,0.86811745,-0.45437875,-0.47283632,0.68125629,-0.52517080,-0.68568599,0.67572868,0.18715102,0.15000494,0.30464473,0.06811264,-0.03512642,-0.17286122,0.17017004,-0.05227284,-0.04257968,-0.26488581,0.00741180,-0.12116254,0.08416728,0.18085448,-0.32676998,0.08793364,0.35548359,-0.13155732,-0.10034012,-0.08110520,-0.07490459,0.04074266,0.10460916,0.12473202,0.09091309,-0.06675174,0.01854676,-0.09315388,-0.32019872,-0.17314441,0.37226129,0.73484176,0.72406852,-0.35805559,-0.62259960,-0.61000699,-0.09831399,-0.42696324,-0.31191826,0.40666062,0.49720505,0.55224121,-0.13325270,-0.22161858,-0.16453402,-0.81231451,-0.82943517,-0.73381388,-0.36238220,-0.45858887,-0.41480082,0.37695649,0.60851359,0.60963470,0.12731034,0.17849800,-0.06437578,0.29037327,0.29368803,0.09011219,-0.01746026,0.00412147,-0.06496584,0.27739510,0.31664968,0.43476364,0.20329681,0.15485796,0.20005032,-0.50373596,-0.50842780,-0.32446223,0.68168676,-0.13406150,-0.85728729,-0.07850243,0.22862439,0.50066561,-0.22769052,-0.00139288,0.37754107,0.23312756,-0.41005012,-0.77236521,-0.12866133,0.02182868,-0.06498008,0.21738759,0.17736298,0.04444999,0.25417256,-0.03032695,-0.53972095,-0.06422052,0.48579377,0.10833170,0.05823747,0.05707217,-0.42983988,0.25203493,0.87289572,-0.12379190,0.03704849,0.07100671,0.05262258,-0.26842466,-0.12351786,-0.16484977,-0.26343960,-0.14856146,-0.24270998,0.20299961,-0.16223115,-0.06708560,0.42274958,0.24736147,0.22950552,-0.01494306,0.62733966,0.34502569,-0.17900810,0.07807652,0.06290221,-0.20471539,-0.06894556,-0.01347067,0.18888061,0.23975365,0.53177929,-0.24710055,-0.50137442,-0.69225413,0.25304622,0.00010612,0.16253711,0.03208741,0.18704106,0.56552345,-0.49128008,-0.35880396,-0.72453707,0.38897902,0.33453178,0.12836567,0.13198498,-0.06512369,-0.16051948,-0.20578034,0.15792109,-0.19215101,-0.07240486,0.18141413,0.22952197,0.13445123,0.33360296,0.28594753,-0.68556577,-0.30736402,-0.13251987,-0.56136996,-0.27106938,-0.22683178,0.23824836,-0.09639201,-0.00008230,0.34949333,0.12717943,-0.00999592,0.18331206,0.13064851,0.08148877,-0.31599218,-0.57393479,-0.73736960,0.47182193,0.47880954,0.15693976,0.13005327,0.06282115,0.28695634};
const float conv1_biases[] = {-0.96178979,-0.23917986,-0.23212402,-0.22453420,-1.71852744,-0.25244606,-0.70807356,-2.07269645,-0.40352401,-0.65268344,-1.05090392,-0.08804913,-0.51288158,-0.19405423,-0.62806863,-1.99370205,-0.10563080,-1.53708804,-1.42091131,-2.43688560,-0.81119192,-0.52126473,-2.35101843,0.10267098,-0.17425123,-0.34821951,-1.04184127,-0.47194067,-0.25883618,-0.93448347,-0.39763850,-0.91926754,-0.37985542,-1.39156711,-2.16277623,-0.39628947,-0.43708149,-0.66539854,-0.19344170,-0.75807929,-1.36432159,-0.74310488,-0.57619452,-1.80293298,-0.38207579,-0.95824027,-0.23958017,-1.23103976,-0.84340107,-1.08316875,-0.19093898,-0.26658115,-0.69363737,-1.06321299,-0.18085641,-0.48473349,-1.31184340,-1.01166320,-0.45440874,-1.69262898,-2.28522992,-0.32850105,-0.29507414,-0.16844949};

const float conv2_weights[] = {0.33089477,0.18460721,0.06784220,-0.18677482,0.04481371,-0.11992077,-0.35953253,0.08236204,0.18999468,-0.12202806,-0.37007779,-0.07231455,0.21804960,-0.14809303,0.00099953,0.22100286,0.03580647,-0.04311595,-0.02442918,-0.22274767,-0.26983994,0.26367921,-0.07923760,-0.00237929,0.04963993,0.16030499,-0.00996382,0.39543480,-0.04288051,-0.03523055,0.18213242,-0.21142606,-0.28946373,0.55591714,0.33214214,0.21463813,0.15842815,0.34829241,0.38310102,0.09698571,0.15397526,0.23741071,-0.02551720,-0.11352482,-0.06559870,-0.12150822,0.12474918,-0.21840545,-0.04827307,0.42692018,0.27483031,-0.36992723,0.04404581,-0.00209519,-0.39754957,-0.26102692,-0.29652831,0.26832080,0.41405365,0.36231819,-0.10667930,-0.07141627,-0.15220858,0.02207537,-0.08878170,-0.15782405,-0.12658766,0.18888314,0.05297053,-0.12510887,0.06077140,0.09021454,-0.25632983,-0.13796963,-0.31571060,0.08219139,0.05971660,-0.10912462,0.01458675,0.00415666,-0.23891506,-0.37533325,-0.25138247,-0.13519007,-0.04771518,-0.27116540,-0.30565688,0.08096265,-0.03479953,-0.21017817,-0.09168554,0.13641881,-0.08732355,-0.15085176,-0.19811386,-0.38759643,-0.11778620,0.10810678,0.01979116,-0.14492163,-0.09743343,-0.34328020,0.09600609,0.31281829,0.01760484,0.07235373,0.21345443,-0.04226002,-0.12008101,-0.01587204,-0.02658601,0.05773214,0.01320385,0.08184940,0.13311732,0.13743171,0.10886919,-0.16275191,-0.15743090,-0.14787807,-0.15792587,-0.26135117,-0.23061714,0.36752647,0.19225003,0.08901769,-0.08015434,-0.05160067,-0.04296830,-0.01953305,-0.04285376,0.00655067,0.14526415,-0.11252695,-0.18817998,0.46082142,0.27506304,0.06622172,-0.36928746,-0.14467825,-0.01824705,-0.10402301,-0.10352123,0.09672194,0.05179854,-0.14046828,-0.31427679,0.16902234,-0.34953395,-0.13160638,0.34863356,0.20223521,0.02543734,-0.08169783,0.00519438,0.09062739,-0.09090167,0.13279460,0.03633200,-0.30842227,-0.04533249,-0.11509617,-0.11244537,-0.10382698,-0.09995753,0.05410046,0.08236963,0.06006334,-0.17511895,0.01237601,-0.26148385,-0.24306995,-0.13656592,-0.01924392,-0.23653531,0.01834906,0.07234838,-0.23826046,-0.07564986,-0.19786640,0.17494304,-0.08483241,-0.03055146,0.03706759,0.00514536,-0.13771103,0.19923557,-0.02728258,-0.09841741,0.08115938,-0.00581217,-0.10651909,-0.31102121,-0.23675948,-0.15239575,-0.06718236,-0.15263014,-0.11701298,0.19943497,0.07718647,0.14719056,-0.05576247,0.06164542,0.02352855,0.09312322,0.05745839,-0.12549591,0.07152189,0.19736151,-0.19671576,0.30487379,0.44600642,0.00136989,-0.19915378,0.14655617,-0.26574698,-0.51101333,-0.12229638,-0.03985444,-0.14163639,-0.36351380,0.16508841,0.33261350,-0.19030377,-0.01570275,0.23512723,0.11078536,0.08212038,0.03134567,-0.10766438,-0.01411497,-0.08233161,-0.06326055,0.11527023,-0.31497180,-0.33312041,-0.04143705,-0.15762514,0.07653331,0.11299661,-0.17744109,-0.13419186,0.04379621,0.02602481,-0.12034975,0.06180680,0.17556447,0.05968895,0.28441724,0.11425441,0.04808268,0.14182261,0.03116765,-0.12547295,-0.03547909,0.15885267,-0.31461582,-0.06173898,0.06156546,0.00192720,-0.11229498,-0.01850593,-0.04223681,-0.10115983,-0.32670629,0.07667368,0.00341329,-0.05845656,0.13626647,0.06189904,-0.09358872,-0.10762762,-0.08415078,-0.09314296,-0.24544837,-0.17696616,0.08819459,-0.06409448,0.01579494,-0.05220480,0.06561945,0.12559596,-0.11102003,0.23776293,0.04346998,-0.07849259,0.20783481,0.13554117,-0.40472224,-0.28009391,-0.15954012,-0.24154611,-0.40887567,-0.25164616,0.15120222,0.01674357,0.06693366,-0.17682876,-0.00638325,-0.01668767,-0.00211829,0.00433558,-0.12705232,-0.11432732,-0.03023644,-0.17117462,0.17073162,0.17740798,0.13661338,-0.03800739,0.14062116,0.14875878,-0.20972347,-0.04643364,0.11406383,-0.01293811,0.11641297,0.03156215,-0.33410478,-0.34050891,-0.07863870,0.07833426,-0.32523027,-0.14410919,-0.04360492,-0.04750885,-0.06798911,0.15081666,-0.10002880,-0.09724356,0.19929610,0.11695722,-0.04304486,-0.09946805,-0.09304433,0.00081012,-0.05590554,0.02998262,0.06548893,-0.15781508,-0.01661256,-0.12865758,0.02515082,0.11492036,0.18561815,-0.33282059,0.24981484,-0.07202578,-0.24166261,0.16171362,-0.15461680,0.09604552,0.08298096,0.17102674,-0.03609557,-0.12004299,-0.07949359,-0.05385241,-0.10532615,-0.05047809,-0.04370429,-0.08783887,-0.07072363,0.10240438,-0.01358896,0.04147691,-0.09513122,0.17989123,0.23573810,0.05500400,0.21534811,0.07043897,-0.18268399,0.05292626,-0.04931823,-0.12205382,0.09174742,0.00606365,0.05824087,-0.10747931,0.03924733,0.10394905,0.33556989,0.29780877,0.05535157,-0.08076167,-0.03770720,0.23481587,-0.02867811,0.04807736,0.03007725,-0.03019550,-0.15547979,-0.12175292,0.10800635,-0.23825556,-0.10146361,-0.37741911,-0.37811580,0.23039049,-0.21056306,-0.49572498,0.06312200,0.10221523,-0.27085239,-0.08251763,-0.14198157,0.20347370,-0.17493750,-0.10848277,0.10952812,-0.37265375,0.03200758,0.01363178,-0.26317048,-0.16222072,-0.06024725,-0.07134713,-0.15239112,-0.02177773,0.09700355,-0.02504456,-0.07869564,-0.19667664,-0.11155015,-0.09133255,-0.10603366,0.05638732,0.05657317,-0.26941687,0.04094537,0.07388067,-0.02295831,-0.11897391,-0.09361696,-0.06350166,0.02239034,-0.02544825,-0.24218629,-0.01477203,-0.14860855,0.16045341,-0.05957683,0.05117406,0.06277815,0.19969538,0.15486707,0.11490089,0.17306666,0.09651040,-0.21514934,-0.32176807,-0.64345401,-0.09121516,-0.34578457,-0.37731174,0.28735176,0.05237377,-0.23225865,-0.22794288,-0.45343354,-0.28924570,0.28089553,-0.33362928,-0.03725998,0.23755181,0.15133667,0.30561361,0.06267151,0.15928400,0.37138876,-0.30820128,-0.06328329,0.07808212,0.00645725,-0.06824408,0.05210935,0.15323019,-0.09861757,-0.09935974,0.04163114,-0.07574136,-0.17593767,-0.02903470,-0.10517231,-0.18831016,0.00447558,0.14729598,0.03468382,0.03351174,0.14768752,0.02489860,-0.42505473,0.01816471,0.00690264,-0.31092915,-0.10390551,-0.02737024,-0.24732131,-0.02919934,-0.00518163,0.22577688,0.12364886,0.09385455,0.05516460,-0.03109942,-0.04629264,-0.25369900,0.08375201,0.10506646,-0.04601790,-0.02544733,0.21678557,-0.16236511,0.17875940,0.13165009,-0.48685744,-0.07843373,0.04249812,-0.21126886,-0.03647543,0.33475274,0.20940080,0.07188213,0.21379173,-0.07902458,-0.16974449,-0.02948648,0.02802154,-0.18634296,-0.24913999,-0.10639612,-0.06654599,-0.06544412,-0.25623938,-0.02393821,0.02170838,-0.14703786,0.05094192,-0.11177271,-0.02050334,0.04629029,0.10044123,-0.09785224,-0.09733723,-0.09745102,0.00133435,0.03417701,-0.10593727,-0.09193940,0.02802584,-0.16893943,-0.04969982,0.17459670,0.02560339,-0.03417886,-0.07200705,-0.38433990,0.13095003,-0.11685759,-0.20193469,0.13178393,-0.14696552,-0.12048513,0.04316489,-0.20145318,-0.05021607,-0.01601684,0.04062500,-0.20746321,0.10167953,0.52743352,0.22239839,-0.48868185,-0.05380126,-0.19088130,-0.11042765,-0.10045850,0.02700132,0.12355438,-0.02525792,0.24385297,0.13634265,0.09699807,0.03456050,0.01571994,0.00908450,-0.04917941,-0.40036252,0.01244054,-0.10797167,-0.00962638,0.12649848,-0.06953523,-0.26990998,0.01678053,-0.11328372,-0.25633311,-0.04366213,-0.01051568,-0.36531872,-0.14401388,-0.12932624,-0.21070147,0.09000773,0.00454591,-0.32698101,-0.18450470,-0.15530796,-0.42087501,-0.05998402,-0.12316664,0.22654402,0.02032169,0.21303120,0.24969487,-0.05029258,-0.04463182,0.14603539,-0.11352414,-0.03713322,-0.29527202,-0.14551945,-0.01342719,-0.10320161,0.11758930,0.05885996,-0.09456185,-0.06819242,-0.05972786,0.29697701,0.48798510,0.58764803,0.08347175,0.04269076,0.01418164,-0.26629931,-0.35784054,-0.26188439,0.03960257,-0.06034314,0.00001261,-0.14521918,-0.14043485,-0.20501547,0.27326503,-0.09992210,-0.07270723,0.05296754,0.00847372,0.15633625,-0.14140612,-0.25096995,-0.00597657,-0.14513332,-0.08935324,-0.08629832,0.00571927,-0.20654368,-0.22351582,-0.09029957,-0.18802085,-0.17893968,-0.08552315,-0.06368505,-0.04462867,-0.06569323,-0.10004987,-0.05903931,-0.15204766,-0.32294518,-0.19643267,-0.11837189,-0.09455766,-0.12914272,0.04680926,-0.01002233,0.03290549,-0.01728834,-0.00185615,0.24585862,-0.01311594,0.05142561,0.09083610,0.09278639,0.03750579,-0.01794241,0.13339435,-0.00060523,0.02017441,0.27319336,-0.01406445,0.08993364,-0.12209786,0.13147444,-0.04647672,-0.44440931,-0.15830880,-0.02056725,-0.15526153,0.17646875,-0.13418628,0.17735834,-0.13985579,-0.03713251,0.21449120,0.42723280,0.36124533,0.43203303,0.01489031,0.03277148,0.38082388,0.12552795,0.11499268,-0.07561520,-0.07670058,-0.28808376,-0.29456273,-0.07445038,-0.26705295,0.07927012,0.17072293,-0.16441481,-0.43001044,-0.10708377,-0.00906551,-0.20325185,0.08944558,-0.21464391,0.07864416,-0.02272919,0.21332698,0.17840770,0.07955611,0.12665045,-0.15041922,-0.38733894,-0.27426902,0.05422267,-0.08495564,0.06435554,-0.17930895,-0.10131931,0.02611311,-0.24749678,-0.34053254,-0.26805595,0.00483242,-0.10819349,-0.14308587,-0.07521806,0.00986689,-0.01168281,-0.15154101,-0.12006672,-0.06439464,0.18391314,0.14064260,0.24971396,0.10847414,-0.04685700,0.04268789,0.04381265,-0.09343272,-0.06311785,0.08153439,0.02799460,-0.13314068,-0.29198748,-0.28470230,-0.41437239,-0.13251740,-0.02771865,-0.28640631,0.08397453,0.24995971,0.20634969,0.01998471,0.10306071,0.02679069,0.04845490,0.01821586,0.10068019,-0.28276992,-0.26514456,-0.11551186,-0.07935729,0.09126399,0.05442631,0.23825443,0.20012315,0.31455737,-0.08939195,-0.16511148,-0.10309619,-0.15065932,-0.02995387,0.04458125,-0.00655418,-0.05582282,-0.28611156,0.09956156,0.02985442,0.08415142,0.09711027,0.02113756,0.19760831,0.14442763,0.01410969,0.05675581,-0.02916335,-0.18652692,-0.10170079,0.09951386,0.01301108,0.18890849,0.03035566,-0.13350700,0.08317472,-0.00161159,0.10083481,0.18076144,-0.37240616,-0.30679303,-0.20321557,-0.09874012,0.03052427,0.00529798,-0.10958418,-0.13061442,-0.01154923,-0.10734172,0.05690768,0.06620338,-0.05463584,-0.04420268,-0.14469416,-0.09098755,-0.14517407,0.07198633,0.11209006,0.16880050,0.33059692,0.23924914,0.30133450,0.33880940,-0.11056009,0.07788789,-0.12127556,-0.16103692,0.00065164,-0.33849251,-0.35852104,0.05644161,-0.30180931,-0.04392117,-0.12715618,0.01282256,-0.05928842,0.00328806,0.00498270,-0.04017125,-0.12031820,-0.00892076,-0.04072257,-0.03010143,-0.14150490,-0.07772450,0.00893205,0.03092547,-0.00889914,0.13492225,-0.14575191,0.34313473,0.18000555,0.43922201,-0.04455059,0.08346602,0.08751111,-0.17901953,-0.14512034,-0.11194611,0.29828545,-0.03846386,-0.07101752,0.06536136,0.01097107,-0.00736178,-0.02780188,-0.02732681,-0.07662990,0.32702366,0.10373540,-0.29095688,-0.32308334,-0.18009694,-0.37245685,-0.23286271,-0.11113890,-0.17563695,0.13388386,-0.06773841,0.01206807,-0.04246193,-0.14455417,-0.10229060,-0.12525421,0.03856269,-0.02962643,-0.08932699,-0.24366453,0.07004318,0.10295735,0.06459159,0.13365889,0.04019016,0.00092155,0.08265098,0.18466470,-0.26898611,0.18839776,0.22610931,0.07460419,0.26463205,0.13155845,0.12901638,-0.01096008,0.18028939,0.03962650,0.20806564,-0.06450526,-0.06012492,-0.00843214,0.00325675,-0.03105384,-0.19614813,-0.05948683,0.10940919,-0.05842008,0.03335986,0.25565115,0.12698978,0.12301770,0.10950957,0.04925963,-0.12281868,-0.09231938,-0.00313419,0.07902340,0.06002987,0.06170274,-0.16428982,-0.01128527,-0.07871702,0.10274386,-0.37303847,0.18972070,0.14051421,-0.12219274,0.03301982,0.16779472,0.18665387,0.37436497,-0.12441514,-0.13365233,-0.16238813,0.21178333,0.12069269,0.05371367,-0.13142900,-0.01219728,-0.29455432,-0.20380901,0.05059386,-0.13224730,-0.25327009,0.13487800,-0.22545157,-0.34564733,-0.02199338,-0.34616321,-0.23207595,-0.16210926,-0.22908288,-0.06974826,0.12186394,-0.14587782,-0.26655507,-0.28461018,-0.30689642,0.28668532,0.09184533,0.04644597,-0.27503839,-0.42956507,-0.01435818,-0.07982895,-0.11098923,0.24429846,-0.23128645,-0.14899680,-0.20091869,-0.07583305,-0.02447065,-0.00296727,-0.07127623,-0.16733061,-0.20226881,0.00856230,0.10496648,-0.25774002,0.04549585,0.13202447,-0.10909962,0.06323564,0.05960479,-0.05394016,0.27135193,-0.02310496,0.10720201,-0.20989352,-0.55191350,-0.47234187,-0.04892544,-0.22410266,-0.18902044,-0.05930634,0.05223698,-0.13673194,-0.18074334,-0.05482054,-0.28817859,-0.12800247,0.10089505,-0.14039575,0.29272607,-0.07341373,0.08603250,-0.13993406,-0.39190328,-0.46876234,-0.21887386,-0.41297370,-0.25139919,0.21880570,-0.02619133,-0.03573960,0.06394637,0.08609547,0.24922235,-0.22609414,-0.11560810,-0.01524194,0.44377291,0.13795245,0.01911035,0.05635413,-0.08454201,0.08998839,-0.10284679,-0.11253711,-0.00267964,-0.10989113,-0.19940247,-0.07736806,0.09481258,-0.00604441,0.03550538,0.07015988,0.08347449,-0.03252918,0.02178256,-0.13849099,-0.13789536,-0.05648449,-0.09911710,0.12494593,-0.24263728,-0.09889571,0.04725574,0.01609390,-0.16045403,0.08774543,-0.01762614,-0.46893603,0.05455346,-0.02509246,0.15566781,0.19134650,-0.29305938,-0.29246390,-0.13096102,-0.00398034,0.08474096,-0.00746541,-0.07616848,-0.21386997,-0.28143263,0.03873115,-0.12435953,0.17532702,0.12331264,0.05364438,0.00735281,0.06877758,-0.12344417,0.10270585,0.07420409,-0.04569512,0.08917040,0.17841984,0.22300903,0.22848558,-0.11372417,-0.00361772,0.15154934,0.14471951,0.05039687,0.34951320,-0.14956962,-0.38826546,-0.17192386,-0.17424724,-0.03663396,-0.27208281,0.25291354,0.13468416,0.12660409,0.03127852,-0.10823084,-0.08255733,0.02240655,0.11201208,0.15491065,0.16773003,0.00399163,0.18590324,0.02588748,-0.06463025,0.29987600,0.08246695,-0.09349427,0.06688219,-0.13660382,-0.07768726,-0.03587115,-0.05370718,-0.09346503,0.15334800,0.20018959,0.11725028,0.24841708,0.15213439,0.05477889,0.07580507,0.22123237,-0.12301131,-0.03680826,0.24988940,-0.11164094,-0.05805632,0.06005700,0.23415300,-0.01672068,0.21225284,-0.01402557,0.11070390,0.03748490,0.04836451,-0.04989434,-0.08176464,-0.19772823,-0.22038606,-0.07609259,0.00063823,0.04970292,-0.22597282,0.16198123,-0.11359619,-0.00708826,-0.02725401,-0.14316741,0.42132145,0.09373611,-0.21399337,-0.35754657,-0.07059168,-0.30496502,-0.21290323,0.12453929,0.02036401,0.15739295,-0.01818211,-0.14370507,0.07228157,-0.24795616,-0.16891973,-0.02626890,-0.23300832,0.05990801,0.12430055,0.08713104,-0.04932665,0.17319202,0.06459608,-0.25407776,-0.15886976,-0.23659301,-0.11665932,-0.29873467,0.11366797,0.07839040,0.07116098,-0.13163187,0.09545540,0.03120127,0.05749464,-0.12113246,0.02166397,0.12572807,-0.04080393,-0.23479624,0.01359253,-0.03404595,-0.09661245,-0.10260317,-0.07714465,-0.21059011,-0.23526350,-0.06633469,-0.14134033,0.11426156,0.10442263,-0.26851436,-0.45554897,-0.23847891,-0.01748739,-0.29489818,-0.03564865,0.02564803,-0.02312073,0.05485439,-0.06996381,0.42535463,0.25593582,0.36635414,0.17018691,-0.03592337,-0.15923731,-0.11876339,0.06518909,0.02599468,0.05453951,0.09460059,0.10780950,0.04015471,-0.10241048,0.07571131,0.01035324,-0.08247298,0.11521777,-0.28803560,-0.25664073,-0.12430272,-0.23741671,-0.05399340,0.09639177,0.08556566,-0.01846295,-0.06850532,0.16199772,0.14855671,0.28081343,0.19886811,-0.07706513,-0.00399910,-0.06835214,0.00972446,0.04879409,0.09936446,0.21309102,0.36374027,0.12443699,0.07323953,0.00608284,-0.21039636,-0.21732153,0.21918400,-0.28858987,-0.13520327,0.04653190,-0.04390287,-0.08780959,-0.07901400,-0.01436139,0.16453093,-0.26877248,0.22980784,0.15407354,0.27985862,0.09236512,-0.13389173,0.18740833,0.07245976,-0.11983518,0.19988550,0.17719786,-0.12429981,0.10027787,-0.09009352,-0.11134036,-0.10431008,0.24086388,0.26038402,-0.02472596,-0.04671656,0.12052820,0.01835057,0.08642533,0.32560328,0.04864523,-0.09427283,0.10071255,-0.06621171,-0.06697398,-0.12088177,-0.36392552,-0.01222993,0.26272446,-0.03847296,0.21397083,-0.01301442,0.12692823,0.01843555,0.19512582,0.22933891,-0.13970867,0.09155835,0.00929599,0.04632310,0.04852334,-0.03547530,-0.31905657,-0.39889285,0.00302370,-0.07200671,-0.09014987,-0.10817262,0.05538083,0.06533755,0.27149001,0.24147323,-0.07525789,0.04661115,0.02892838,-0.22579815,-0.19112405,0.06307983,0.09663956,-0.10335441,-0.01670042,0.04506897,0.17185593,0.17197230,0.02052009,0.14113571,-0.08480619,-0.32960001,-0.25459504,0.07182942,-0.06514750,0.05139113,0.13021158,0.00177518,0.25877866,0.09320045,-0.02191363,0.19893472,0.27611789,0.29346445,0.45736799,0.08536439,-0.13643514,0.21970198,-0.29175428,-0.49340683,-0.10904013,0.15618019,0.18301225,0.00356060,0.15116417,0.10218512,0.00839890,0.05262046,0.12214090,0.02373962,-0.05196253,-0.69163805,-0.05307879,0.11435300,-0.09921087,-0.12133125,0.00962704,-0.01663043,0.05120170,0.12874341,0.13808310,0.13609770,0.02044150,-0.15036195,-0.03473886,-0.13789386,-0.09504031,0.01582902,0.15721287,0.08258884,0.13231331,0.09357348,0.07486707,0.07531865,-0.03610560,0.02529810,0.07023443,-0.06670664,-0.13356361,0.00228284,0.05799418,-0.07298031,0.01854796,-0.00313593,0.04627978,0.35305232,0.14367376,-0.03386923,0.11800106,-0.01704239,0.13804118,0.19671243,-0.03280443,0.00875891,-0.02593061,-0.37128058,-0.34835955,0.07668448,-0.08781485,-0.12051105,0.08101432,0.17491132,0.15527739,0.24234222,-0.12713984,-0.11061786,0.04572015,0.03449007,0.17154786,0.00083139,0.07623566,-0.01250955,-0.03990634,0.01692875,-0.18821292,-0.36091861,0.03179387,0.11599648,-0.03637380,0.08835876,-0.08135888,0.03365039,-0.07642538,-0.19686009,-0.05034610,-0.16073278,-0.13466390,-0.04490247,0.15194108,-0.15805042,-0.18845949,0.06366808,0.06300607,0.01613753,0.24720967,0.05407537,-0.15447398,-0.09446482,-0.13378622,0.15044258,-0.00782610,0.15185070,0.02499141,-0.11334071,-0.12316889,0.09980004,0.04564135,-0.04328343,0.19579357,-0.08505504,-0.16084918,0.22063218,-0.23626173,-0.12340149,0.47613087,-0.32336208,-0.23380420,0.05732039,0.13394119,0.19091682,0.40012252,0.18533894,0.13285573,0.29986450,-0.12138558,-0.22161366,0.05020187,-0.05101690,0.20244084,-0.11428972,0.06170930,0.20141192,-0.13872159,0.16863042,0.19817270,0.05528887,-0.03594681,-0.05993228,0.17593886,-0.08994458,-0.28266227,-0.09881904,-0.34709588,-0.29423788,0.28755331,0.01569044,0.15528862,0.18300335,0.04772073,0.08728104,0.05451309,-0.17039003,0.03946401,0.06496983,-0.30098003,-0.19086127,-0.07153646,-0.29273915,0.05476001,0.00026939,0.05584197,0.05739632,0.22245140,-0.20374794,0.01879782,0.21573298,0.04805105,0.09116375,-0.06646677,-0.14127172,0.10541033,0.08646561,0.08469535,-0.09361567,-0.00253611,-0.04045238,0.09953631,0.06582277,0.10973525,0.13432314,-0.33060926,0.09506134,-0.02101420,0.10462843,0.30977285,0.16646954,-0.06700215,0.02022829,-0.07839957,0.09742653,-0.23173319,-0.17382786,0.25413165,-0.14692232,-0.04937542,-0.06029233,-0.06281138,0.19872581,0.05824286,-0.22250162,0.03722888,-0.08059444,-0.17097527,0.15084207,-0.03513368,-0.16139303,0.19348154,0.11809364,-0.00257340,-0.19708227,-0.21806541,-0.26449660,-0.01667421,0.06861643,0.14025354,0.13315573,0.15250520,-0.09866944,-0.15327144,0.00435679,-0.23703328,-0.13128035,-0.01555972,0.04827361,0.20695168,-0.12271275,-0.14918558,-0.49683368,-0.14768060,-0.11639243,-0.08844227,0.07998211,-0.11498489,-0.17204507,0.63132352,0.05259999,-0.07784612,0.63074946,-0.16889264,-0.40847135,0.72061527,-0.20567784,-0.24543954,-0.18756023,0.01785960,-0.06878534,0.05587687,-0.15020821,-0.02924183,0.12794578,-0.29704154,-0.14486070,0.45286101,0.08977804,-0.33182216,0.35679811,-0.43473208,-0.36161143,-0.20045097,-0.28044543,-0.25993025,0.03173949,-0.08356376,-0.50126159,0.01893277,0.01939618,-0.31670588,-0.17930704,0.16031194,-0.18540159,-0.02797330,-0.08287600,-0.04102912,-0.01435249,-0.04807335,0.11226281,-0.01405381,0.01717572,0.11819315,-0.05798345,0.02362689,0.03132143,0.11834328,-0.03319443,-0.06022077,-0.03504722,0.06303736,0.03704872,-0.36829597,-0.22388829,0.11402044,-0.10407464,-0.00337619,0.03487988,-0.12606779,0.00307944,0.04862630,-0.26961973,-0.20370065,-0.20816654,-0.09942961,0.05678856,-0.01263101,-0.13372481,-0.20226641,-0.11832895,0.02446688,-0.14495747,-0.26556999,-0.11912672,-0.22010468,0.07427294,-0.33237740,-0.22692835,-0.12026004,-0.04317806,0.08138855,-0.06851051,-0.11223865,0.05918949,0.00069157,-0.06046904,0.09653855,-0.20306042,-0.13000634,-0.33335674,-0.11171129,-0.10445333,-0.28401235,-0.04875712,-0.15984358,-0.12508605,-0.04608875,0.05650196,-0.13000795,0.07514069,0.00187924,0.03178832,0.13389334,0.10148143,0.05645651,-0.09748098,-0.01415058,0.19739221,0.03422329,-0.17325835,-0.11951481,0.21340010,-0.08480439,-0.12464733,0.09299382,-0.15611158,-0.01049270,0.16863547,-0.01168649,0.46124902,0.17545563,-0.31752780,0.09931927,0.07649541,-0.13310754,0.30435544,0.06249129,-0.51758522,-0.26208609,-0.28542340,-0.16879503,-0.08667303,-0.31443411,0.09390903,0.12479217,0.27967802,-0.09594934,-0.15062571,-0.11135551,-0.08599413,0.09843037,0.24673620,-0.14044121,0.02109448,-0.22341874,0.00916958,-0.05394095,-0.25673419,-0.31757593,-0.23065110,-0.09605841,-0.34012270,-0.12931700,-0.27801475,-0.31995958,-0.17807700,-0.57955301,-0.06481551,0.08145176,-0.10917527,-0.07529575,0.19563544,0.12934957,-0.00763706,0.21686400,0.03707128,-0.22065195,-0.17036834,-0.21724169,0.21914019,-0.03274465,-0.20438047,-0.15551843,0.00422727,-0.17357853,0.03692324,0.02500211,0.02912155,0.05799627,-0.12480484,0.08224060,0.10241162,-0.25633636,-0.12405604,0.28671363,-0.24709029,0.07004325,0.04745540,0.13743369,0.15279095,0.11136969,-0.00811821,0.01240296,0.04102055,-0.37503031,0.04175379,-0.07365151,-0.16083483,-0.06127511,0.13861987,0.05736794,0.03854765,-0.12832882,0.10773962,-0.03111824,0.13204503,0.15132402,0.01306180,-0.01027619,0.00577681,-0.20515047,-0.03920485,-0.07563964,-0.13184121,0.00152577,0.38922393,-0.31142440,-0.11166990,0.19176957,-0.00025846,0.15128449,-0.26569051,-0.05433732,-0.01775389,0.11190538,0.17951147,-0.17246392,0.30125102,0.15899937,-0.02907192,0.23708811,-0.10452981,0.22289535,0.12874724,-0.05579864,0.24409169,0.24432184,-0.21962358,0.19564134,-0.03813803,0.02239095,0.31935266,-0.20648757,-0.05902892,0.03876297,-0.33577308,-0.21335417,0.19681574,-0.23820613,0.20433226,0.14718343,-0.05182607,-0.01162202,-0.24877740,0.15222146,-0.10998647,-0.11460248,-0.05464759,-0.15514435,-0.29910398,-0.05848945,-0.25469533,-0.41543814,-0.19827353,-0.24955881,-0.23390582,0.02362789,-0.26047942,0.04891833,0.13316341,-0.23135248,0.07846630,0.13448460,-0.08659180,0.05231983,0.11000409,-0.18372046,-0.26091564,-0.27973929,0.13482201,0.12061183,-0.15939148,0.18605624,0.30376533,-0.01274503,0.23862106,-0.22541411,0.13032034,-0.21237832,-0.02222268,0.05170820,-0.05841664,0.10914165,0.17594101,0.04760821,0.05267214,-0.07801543,0.24261470,0.30035859,-0.03435608,-0.12458093,0.27988979,0.00945679,-0.15777138,-0.31021372,-0.09048711,-0.10727588,0.00153794,0.17102379,-0.09868428,-0.08208459,0.28448102,0.01762550,-0.27867705,0.08265858,0.23593152,-0.18530087,-0.02704754,0.08041365,0.00530804,-0.02220240,0.14535408,-0.07466960,-0.12029400,0.02939131,-0.05803010,-0.19687159,0.30410904,-0.33151883,-0.06437933,0.28286138,0.09887717,0.51650268,-0.46261918,0.04467342,0.27724043,-0.25059506,-0.20793918,0.01672605,0.31031904,-0.09923916,-0.02684235,-0.02392884,0.26943496,0.13844544,0.08269786,0.01196370,0.41414043,0.23477495,-0.17331776,0.05605222,-0.15809540,-0.02526750,0.02911195,-0.04022387,-0.12320274,-0.29451180,-0.44956398,0.04550241,0.00517929,0.01920491,-0.07866085,0.11563897,-0.05439344,0.03242599,0.33077267,0.29156673,0.21795884,-0.00268452,-0.02839964,0.00343674,0.18780929,-0.22676402,-0.13160497,0.08220951,0.15176086,0.12716050,-0.07356493,0.06717441,0.00438679,-0.02305274,-0.13006230,0.10659508,-0.26683143,-0.15040915,-0.33686340,-0.15093891,-0.17344675,-0.15309624,0.03029155,0.00992737,0.00129955,-0.02292117,-0.00490656,0.01526898,0.13263529,-0.05385583,0.15847528,0.14963840,-0.14405453,-0.04592677,-0.25637409,-0.13539660,0.05672231,0.05061507,0.07656349,0.17873517,-0.05852050,0.02312182,0.28529924,0.06813395,0.25969148,-0.36751157,-0.24652475,0.01565154,-0.26187083,-0.29164654,-0.17279020,-0.28482649,-0.35354734,-0.14742424,0.11088701,-0.04648893,-0.06239261,0.05300774,0.04237579,-0.02275312,0.31129834,0.15840374,0.01566681,0.39089295,0.08575848,0.00769082,0.01139413,0.47142026,0.16871575,-0.10180435,0.21014142,-0.17125083,-0.22663643,-0.10085323,-0.02576902,-0.30621231,-0.29467899,-0.07793023,-0.01638633,-0.04233171,0.14693932,0.02235820,-0.14207442,-0.04626425,0.20759161,0.10737116,-0.45035171,0.11333083,0.04091926,-0.11963382,0.20317516,0.13279769,0.20963471,-0.17264441,0.02715748,0.12059794,-0.19953233,0.13421942,0.17630707,0.00419416,0.06327692,0.19276840,-0.04968870,-0.45776123,-0.07813279,0.04875956,-0.25511503,0.05461615,0.14129192,0.04289809,-0.06378235,0.20041202,0.16856605,-0.11367405,0.12439789,0.20708367,0.00999720,-0.01507875,-0.34693575,0.10567598,0.05150992,0.17293780,-0.32133156,0.08774741,0.16680512,-0.23956293,0.08887583,-0.08489880,0.29810816,-0.09889331,-0.20509638,0.34072852,-0.02741850,-0.24065165,0.31643304,0.05997894,0.03336538,0.11949963,-0.01719849,-0.16453081,0.00816816,0.06150071,-0.13101581,0.00290843,-0.03665038,0.34409842,0.04503811,-0.22228120,0.15998578,-0.04903647,0.09821106,0.26979968,0.09418926,0.02626803,0.15075797,0.09033710,-0.08408056,0.08287120,-0.07623640,-0.23165902,0.07022501,-0.01201211,-0.05742765,-0.18943928,-0.03045213,-0.08127958,-0.06166245,-0.03419275,-0.01893502,-0.03725772,0.12249242,0.13228182,0.19577684,-0.08451056,0.00085860,-0.07538326,0.00127059,-0.03340618,-0.03362456,0.12511820,-0.06939653,0.11662473,-0.00358708,-0.18091910,-0.19588383,-0.21267752,-0.22484411,-0.13599434,-0.06400597,0.03123106,-0.10609342,0.00366744,0.16690520,0.02855279,-0.01401197,-0.09443982,-0.19767334,-0.01543474,-0.04166871,-0.00580176,0.04025532,-0.23227722,-0.08498649,0.07451371,-0.25921139,-0.23471537,-0.04236315,0.23509114,0.08775102,-0.23427860,-0.20097983,-0.32560793,-0.52296728,-0.03519848,-0.15592694,-0.15084672,0.19812517,0.12484916,-0.12717380,-0.25090638,-0.38987729,-0.20615470,-0.12930720,0.02528462,0.00489363,-0.51628172,-0.33774084,-0.46126318,-0.38916901,-0.14880472,-0.36959907,-0.29690313,-0.22741449,-0.25913242,0.01701767,-0.04518794,0.14607216,0.14791982,-0.12301400,-0.08687388,0.12401609,0.11385878,0.21610804,-0.06446832,-0.05920968,0.00210168,-0.14230537,-0.26743659,0.20608549,0.10492722,-0.06592057,0.10231356,-0.16785087,0.09591494,0.28795519,-0.06927464,-0.00524152,-0.04047349,0.10510886,-0.03896345,0.03225001,0.13821748,0.00122474,-0.19682740,0.07966802,0.10280707,-0.29454503,-0.15515880,-0.13912123,0.00338724,0.06810635,0.00677519,0.09860446,-0.24536437,-0.18583153,-0.08694845,0.09851342,0.14565277,0.09238634,0.02318821,0.02383140,-0.13667515,-0.08260437,-0.06770487,-0.19816896,-0.11614586,-0.18231401,0.27274004,-0.19059908,-0.23159513,-0.01422621,0.05797310,-0.06954205,0.15032888,-0.10099842,-0.18399409,-0.03128534,-0.02926134,0.01066816,-0.15408707,0.36463776,0.14766148,-0.02935026,-0.04850755,-0.14395748,-0.15443911,-0.21918176,-0.11382019,0.02641824,-0.14620787,0.01097815,-0.02307344,0.00753519,-0.06464773,-0.05719850,-0.11011421,0.28277257,0.08581254,-0.05512249,0.17649199,-0.10569972,-0.11308787,0.02505538,-0.14660749,-0.37758705,0.09662708,-0.00818996,0.01075240,0.22488383,0.22598222,-0.07175044,-0.08664540,-0.05067411,-0.22157790,-0.23372307,-0.03529077,-0.10532726,0.00830713,0.14485808,-0.13647808,-0.07614686,0.05073262,0.14520246,0.09259389,0.15163736,0.07809939,0.30859697,0.13437517,-0.09729160,-0.16290547,0.04733599,-0.06780420,-0.18911468,0.03860812,0.08068623,0.02702148,-0.05052301,-0.04814786,0.07653452,-0.05403545,-0.11951878,0.01989138,0.07316729,-0.15335628,-0.25513482,-0.06184249,0.00542326,-0.02278375,0.15873146,-0.10847874,-0.03702052,-0.09949732,0.06966349,0.16698001,0.03699612,-0.14582308,0.19901377,0.21256146,-0.07025863,-0.23145694,0.05889123,-0.28223011,-0.16099931,-0.03165423,-0.00648555,-0.00021991,0.00540059,-0.22632754,-0.16037403,-0.21873397,0.07273008,-0.29086196,0.21139363,-0.08778327,0.09957141,0.03362990,-0.25303477,-0.11873336,0.05171246,0.11961022,-0.07736199,0.13587505,-0.00564098,-0.15380599,-0.17856902,-0.10196852,0.01159748,-0.35521966,0.01193404,-0.06756499,-0.25852647,0.05166822,-0.22609208,-0.11288664,-0.26355216,-0.05239183,-0.11541759,-0.09400559,0.11139996,-0.07157574,0.07531875,-0.00314410,-0.11327167,-0.10349283,-0.35493901,-0.11612719,0.27439013,0.24080944,0.11695889,0.01048458,0.01303313,-0.01360557,-0.30108544,0.07741867,-0.05925860,0.01467808,0.21838526,0.33509910,0.10724764,-0.11425510,0.05997898,0.09231606,-0.10444403,0.00578865,0.15282881,0.13851693,0.09485146,0.14540568,0.01262688,0.14928444,-0.18341509,0.09037508,-0.06831060,0.08708728,0.00397164,-0.21247281,-0.01277720,-0.02598586,-0.15516545,-0.48670044,0.00410037,-0.00234139,-0.12777282,0.06532485,0.00884272,-0.32617176,0.01338262,0.05517382,0.17476068,-0.09798937,0.13025585,0.02413834,-0.10130151,-0.13054064,0.18253383,0.10153210,0.03871591,0.02905792,-0.04783270,0.08602651,-0.00560081,-0.10222219,-0.25282389,0.06131184,-0.19547279,-0.11817196,0.04147511,-0.00722777,-0.08815648,0.10411124,-0.07551821,0.04477684,-0.04576902,-0.05649217,0.28205907,-0.03111638,-0.06727664,-0.07669520,-0.14751035,-0.21324055,-0.28211591,0.07295914,-0.14237486,-0.20291591,-0.50670987,0.01241627,0.08533198,0.14303943,0.17810847,0.24431731,-0.13066177,0.19685733,0.19047701,-0.09752852,-0.02832923,0.05900132,0.27594674,0.33111522,0.02987716,0.25055012,0.07443248,-0.06172599,-0.19588351,0.10128712,0.35407403,-0.22260380,-0.23019016,-0.05864105,-0.08845233,-0.19434155,-0.16982274,-0.58876056,-0.26966617,-0.27515915,-0.08669268,0.31875908,0.18826467,-0.01442804,0.12696630,0.12909067,-0.36569196,-0.15903819,0.14392303,-0.31333205,0.02575473,0.13900608,-0.09386259,-0.06693213,-0.02068202,0.25377053,0.13264182,-0.02864675,0.04857217,0.12748806,-0.11794289,-0.01459113,-0.05774477,0.04057698,-0.08240683,0.13390099,0.12623456,-0.06340823,0.04787744,0.06585695,0.12960611,-0.12661844,0.07399826,-0.24133298,-0.12386507,-0.07448363,-0.19516705,-0.27614000,-0.07956256,-0.00458571,-0.08433491,0.10793737,0.02786550,0.22922720,0.09605502,0.00571208,0.13632968,-0.21547429,-0.16033477,0.00797759,-0.09677089,-0.39074311,0.06322904,0.05381080,0.05365872,0.11455169,0.21386948,-0.43369582,0.20880821,-0.04208190,0.05683368,0.05637109,0.17742300,-0.12797713,-0.21667247,-0.09775664,-0.07678464,-0.20868151,-0.17890297,-0.16852312,0.13061789,-0.13337505,0.06479684,0.12291063,-0.00119105,-0.09236500,0.05228112,-0.06761223,-0.03370130,-0.25330964,-0.19378161,0.08276327,-0.09003360,0.13758050,0.03521837,-0.05573624,0.00614869,0.04313981,0.03453970,-0.24869433,0.14588162,0.05385799,-0.30868062,0.16867796,0.04752687,-0.12718962,-0.21484700,0.09903722,-0.06428016,0.14373866,0.31578922,0.20031767,0.00120147,0.07669999,-0.14041994,-0.16303812,0.14918104,-0.23182632,0.02010520,0.09032897,0.11538501,-0.08486389,-0.08739869,0.10270373,0.01427130,-0.08044817,-0.24247156,0.07754985,-0.01964644,-0.26980481,-0.04063431,-0.06632766,-0.04388461,0.12374519,-0.10078953,-0.12495442,-0.18331964,0.18294121,0.29550698,0.03278362,0.00490151,-0.14867659,-0.01540467,-0.05753544,-0.12034623,-0.08496030,-0.02783468,-0.09644878,-0.16470598,-0.07598551,0.11634276,-0.06818109,0.05256889,0.20800273,-0.10711797,-0.01455442,-0.22173373,0.19508685,0.06839685,-0.02537747,-0.23948646,-0.05205941,-0.01857517,-0.19256653,-0.11519536,-0.04243683,-0.06438480,-0.05691483,0.19645901,-0.32122275,-0.08706114,-0.17160028,0.26974860,-0.03391475,0.08734187,-0.04890625,-0.09805286,0.04669903,-0.09837433,-0.19083101,-0.07142662,-0.15673426,-0.17755365,0.29825571,-0.21949117,0.11721190,-0.06180443,-0.23539674,0.06113600,-0.18746044,-0.06073834,0.19921707,0.01430053,0.05504641,0.13679113,0.01144135,0.05392570,0.12807721,-0.03524071,0.20364112,0.03220005,-0.05845441,0.02607386,0.22579265,0.06124185,-0.54049695,-0.01328348,-0.15916841,-0.09645199,0.15735926,0.18380490,0.12683561,0.10292824,0.04491524,-0.13856153,-0.07565948,0.07407591,-0.07129171,-0.03795638,-0.19626243,-0.05286841,-0.05199390,-0.13831233,0.06089536,0.01346368,0.19377328,-0.02904748,0.04121992,-0.09833887,0.29814130,0.05923684,-0.07563777,-0.06349421,0.02203561,0.00297486,-0.18258023,0.01696061,0.02931367,0.06475901,-0.03260049,-0.01548180,-0.32867497,0.26432633,-0.08408704,-0.04218722,-0.00520532,0.16104338,-0.09604560,0.10053683,-0.20990719,-0.18653151,0.01102211,0.01948334,-0.18269990,-0.03543776,-0.00605251,0.01100378,0.00498548,0.05777838,-0.04653165,-0.06316810,-0.52183664,0.00690761,-0.01684486,-0.16496643,0.19910812,0.11875910,0.06354643,0.33125925,0.11796163,0.20667584,0.04671028,-0.01496016,-0.04248222,-0.01652914,-0.22612414,-0.10464819,-0.01273641,0.06279148,-0.02741126,-0.15062320,0.11567822,-0.07270673,0.03195343,0.08313827,0.09639745,0.06329520,-0.03890841,-0.30887473,0.06586470,-0.13318741,-0.05662312,-0.09657093,0.00423013,-0.03484090,0.17811494,0.08588631,0.04223225,-0.01145907,-0.07699613,-0.22382760,-0.24806920,-0.18044871,-0.17056067,0.10976322,-0.09132657,-0.08981840,0.09657910,-0.07515126,0.05727265,-0.06405854,-0.17062058,-0.11745135,-0.31289494,-0.20168330,0.01832103,-0.17552242,0.09303948,0.05629498,0.06744067,0.06144458,-0.03263579,0.07767237,0.27286640,0.35608223,-0.16770738,-0.01483429,-0.06050179,-0.00419579,-0.01572048,-0.08407812,-0.07413565,-0.21105613,-0.39312914,-0.02827923,-0.25502950,0.06863306,-0.14754026,-0.22356948,-0.10121001,-0.14649908,0.09901804,-0.06633251,-0.10710894,0.11331789,0.11557856,-0.33099905,-0.18826175,-0.19028017,-0.40280658,-0.20942903,-0.16669379,0.12398548,0.14518137,0.00621548,0.19181579,0.13943289,-0.07136720,-0.26453859,0.05906173,-0.12225249,0.12826052,-0.03587417,0.00981050,0.09708650,0.19740804,0.10392621,0.06437800,-0.13621211,0.08249750,-0.05061785,-0.34621441,0.31399810,-0.44742253,-0.17404343,-0.26093712,0.03755999,0.03811160,-0.00287732,0.14468990,0.07756945,0.13534989,0.02600408,-0.16470896,0.05939765,-0.20086524,-0.16590393,-0.05477837,-0.09058706,0.13151303,0.03264232,-0.23598206,0.24949239,0.12917346,0.07436688,0.00879710,0.05505857,0.04519000,0.14370409,0.23104864,-0.12423820,0.03359221,-0.08404028,-0.10506615,-0.24912411,-0.16535901,0.20416917,-0.11301158,-0.24301659,-0.38164634,-0.41083005,-0.16060382,0.07112672,-0.07151235,0.08661879,0.11945707,-0.20425402,-0.03800862,0.11002437,0.05585949,0.08469276,-0.36827654,0.05888527,0.17048731,-0.22300650,0.09508114,0.23794287,-0.21710551,-0.04338409,-0.14477523,-0.09084062,-0.15388058,0.03755908,-0.00651748,-0.18997502,-0.12386122,-0.18760957,-0.37109044,-0.11038237,-0.20882163,-0.16779128,-0.16875538,0.00524095,-0.18615319,0.01252706,-0.31469935,-0.15815109,0.20522746,-0.00529067,-0.05391390,-0.13734071,-0.07156917,0.02606092,-0.11605518,0.03802192,0.14111811,-0.14735620,-0.21603826,0.07605176,0.26264283,0.10515381,0.03238840,0.01727730,0.14644729,0.20569311,0.10009375,0.08576921,0.06054773,0.20756133,-0.15099262,-0.00682299,0.20570725,-0.09675915,-0.17989163,-0.00922362,-0.03373065,-0.31442186,0.15520474,0.09947855,-0.30918080,0.06851827,-0.02306280,-0.21870255,0.17424221,0.32329199,0.12506563,0.09083545,-0.12842810,-0.04654033,0.14286379,-0.33790407,-0.21916615,0.09493217,0.04217296,-0.11515126,0.09787516,-0.15310758,-0.22770634,0.11325122,0.05240978,-0.28404430,0.35569710,0.18908313,-0.08927516,-0.04166402,-0.27149037,-0.21176559,0.04111304,0.03269143,-0.37225756,-0.05686969,0.14556594,0.18970641,0.03416688,0.09345455,0.15523908,0.30553994,-0.07170586,-0.34896591,0.09963693,0.02894998,-0.20080063,-0.38561282,-0.17467752,-0.23992439,-0.02562809,-0.10507871,-0.14663661,0.00507864,-0.10796628,-0.23298849,-0.16363537,0.03226358,-0.05678798,-0.10035388,0.11787330,0.01557899,-0.11352827,0.09959944,0.08698463,-0.13163011,0.04300456,0.00566809,-0.07141674,-0.04990200,0.00590539,-0.03336417,-0.08373559,-0.15006533,0.02144580,0.36343470,-0.10717320,0.08402711,0.23202403,-0.26145649,0.03802446,-0.04293501,0.19801888,-0.01201726,-0.14128001,-0.19306016,-0.04740755,-0.17695727,-0.19167931,0.22771145,0.04300219,-0.00781765,0.05123406,-0.26275521,0.00611310,-0.00161156,-0.15975836,-0.01713234,-0.14819537,0.09032753,-0.08906907,-0.07487744,0.18644990,-0.00142960,-0.06957228,-0.07884371,-0.39634544,-0.30842823,0.07930907,0.13123316,-0.10194444,0.04025227,0.15905423,-0.00523022,0.02704109,0.15506992,0.06861702,-0.07848708,-0.15720286,0.18520266,0.02039417,-0.07894843,0.26559019,-0.18907648,-0.46410388,-0.04270110,0.27437669,0.05479861,0.15562494,-0.02221267,0.02089903,-0.09665355,0.17425144,-0.09257665,0.08298293,0.00872114,0.01565597,0.00068552,0.16202532,0.14495033,0.05607678,0.17210907,0.16862792,0.03308262,0.01003788,-0.04252492,-0.21449131,0.04358482,0.20041066,-0.14064318,-0.08119911,0.09633097,-0.04974610,-0.21919206,-0.00120618,0.23246738,-0.09736860,0.05814347,0.00398977,-0.22401618,-0.19129769,0.04907579,-0.08548415,0.09612288,-0.09883188,-0.06979184,-0.17284702,0.07426796,-0.22983550,-0.23371191,0.22782528,0.16838305,0.08346777,-0.15379171,0.20594995,0.27376410,-0.00905802,-0.11397241,-0.12689138,0.00180344,-0.07395591,-0.10419179,0.12507562,-0.01780236,-0.26372507,0.03538347,-0.39111265,-0.22831775,0.04986213,0.06482171,0.09381605,0.04624408,-0.10676062,-0.22579130,0.06186154,0.02191044,-0.18244395,0.03778952,0.23151949,0.15911545,0.20944762,-0.01761027,-0.10168175,-0.05567724,0.09875955,-0.14714524,-0.07110257,0.07954157,-0.09621696,-0.00912226,0.04536494,-0.06489205,0.03034965,0.17083734,0.29080236,0.14515020,0.14794096,-0.02488124,0.07236267,0.07888937,0.04299959,0.11765658,0.07672441,-0.46957991,-0.02020832,0.09779842,0.08537458,-0.41881144,0.32273081,0.06343243,0.16512869,-0.04579378,-0.03843099,0.08766396,-0.02733845,-0.17611866,0.23224729,0.22826240,-0.08014251,0.11671869,-0.34584782,-0.52620161,-0.03635332,-0.07340844,0.10691301,-0.08961403,-0.02859589,0.16178320,-0.08902121,0.08537497,0.28257340,0.01828066,-0.09164177,-0.07641155,0.13445018,-0.11290455,-0.09133618,0.05351086,-0.07358902,-0.11072630,0.01488306,0.44655344,0.12723154,0.07576897,-0.01197776,-0.11034594,-0.33079740,-0.00534708,-0.11422931,-0.32238555,-0.00349877,-0.17719127,0.26213807,-0.07928073,-0.22369002,0.09431035,-0.38762933,-0.54582226,0.19048950,0.36305666,0.36453956,-0.12748976,0.01289621,-0.18413475,-0.23197132,0.13514677,-0.09082850,-0.05008702,0.01637098,-0.07915035,-0.07712317,-0.04853754,0.05156477,-0.23620848,0.22348924,0.27108788,0.01095601,0.03412008,0.03340969,-0.00995739,-0.21028525,-0.04820130,-0.16189455,-0.25612429,0.06290463,0.13840470,0.04392888,-0.18359594,-0.00333674,0.05423272,0.06898993,0.16605377,-0.16461569,0.18944830,-0.20411359,0.02532316,0.17791155,-0.07266103,-0.08956263,0.20008255,-0.05126595,-0.25626492,-0.21769521,-0.22773202,0.06221015,-0.05731346,0.04684159,-0.05500644,0.05174617,0.07362022,0.16459852,0.07614689,0.16125973,0.03719486,0.07179816,0.06937721,-0.18794581,0.05489185,0.21016845,-0.17394881,-0.07255515,0.25948992,-0.09154114,-0.04399575,0.05097802,0.03954123,-0.04060263,-0.00956378,-0.21056095,0.01506230,-0.07926425,-0.06502325,0.02768278,-0.03235636,0.29445720,0.09587234,0.05023587,0.22809772,0.36428794,-0.04370190,0.18172808,-0.00575908,-0.20233649,0.25490633,0.12099312,-0.11648089,0.22079720,0.03531990,-0.04003352,-0.03335492,-0.02663278,0.01654440,0.26971990,0.10190180,0.22396988,-0.02059939,-0.24640714,-0.21221459,0.52713060,0.07877594,-0.49171716,0.57920164,0.12445119,-0.26210898,0.23647875,-0.27761892,-0.19586144,-0.08127307,-0.04471817,-0.05160547,0.10686368,-0.09771465,-0.07155394,0.31427789,0.17704803,-0.08438350,-0.20647392,-0.30756098,-0.24149092,-0.01561305,-0.12913302,0.04572419,0.40298358,-0.36536062,0.17993239,0.07365713,0.16120352,-0.15234992,-0.12105267,-0.08921557,-0.13800414,0.37319538,0.21590657,-0.08274636,-0.22742753,-0.13048512,0.03549515,0.01230011,-0.32401255,0.13023496,-0.27791718,-0.35052159,0.12821145,-0.19611868,-0.10437536,0.06723724,-0.13200973,-0.00467898,0.02698151,0.01301539,-0.03999213,-0.15355107,0.07339232,0.07472524,-0.13247284,0.24295121,0.12118226,0.00408129,-0.06239072,0.03483437,-0.12502314,-0.09139629,0.10628454,0.37175891,-0.01971815,-0.17202306,-0.07167631,-0.04217038,-0.26147038,-0.31960973,0.01209055,-0.19305702,0.14561723,0.07021365,-0.22797853,0.29086298,-0.08718538,-0.43144220,0.02886061,0.00857839,-0.07753769,0.09945066,0.12775139,-0.01074800,0.16143098,0.01421008,-0.13863645,0.07924247,-0.33135161,-0.24323636,-0.23721400,-0.05391641,-0.40525219,-0.29989001,0.25762689,-0.25643662,-0.03013343,0.18892518,-0.08059987,-0.22300528,-0.09574069,-0.01440333,-0.11310882,-0.05671008,0.06928784,-0.09904774,-0.01073668,0.05659128,0.23099667,-0.15698281,-0.05696717,-0.11393897,-0.05599343,0.32643190,0.14754489,-0.08447660,-0.10543737,0.09446555,-0.02392960,0.15852554,0.10273993,0.05994259,0.06183715,0.09701583,0.24148229,-0.03180159,0.16479355,-0.07438468,-0.06223971,-0.11373814,0.06039737,0.07627443,0.15698235,-0.13702810,0.06210013,0.33607301,0.05584805,-0.01713989,0.33547747,-0.10463708,0.04562686,0.15794183,0.16992822,-0.28311116,-0.30554426,0.44162729,-0.23986799,-0.40853286,0.76103836,0.10245796,0.09457643,0.15416794,-0.04309830,0.19830213,-0.14536494,-0.22073153,0.05434258,-0.06604020,-0.10205484,-0.11068362,-0.15015921,-0.03545712,0.13018201,-0.03032570,-0.01294875,0.00134968,0.25124422,-0.07528988,0.02481648,0.20643801,-0.24578819,0.01412442,-0.25637197,-0.12521455,0.32612461,-0.32014394,-0.28334272,0.17678848,0.11437157,0.16508114,-0.12729928,-0.21041362,-0.08453563,-0.10700885,-0.03241842,0.03600251,0.08188930,-0.04829743,-0.06762596,-0.01227714,-0.03080782,-0.18738078,-0.09033632,0.05831818,-0.01797092,-0.12149771,0.22623144,-0.00396193,0.08804441,0.01167347,0.23645194,0.04946641,-0.06138355,0.13074812,-0.05725970,0.01164007,-0.05887705,-0.08807229,0.23313735,0.02069436,-0.15259057,-0.00096724,0.01753631,-0.12491430,0.35003462,0.02800259,-0.15974370,0.36306831,-0.03022085,0.06421790,0.01065431,-0.07646581,-0.12825601,-0.12777075,0.14176458,0.04939311,-0.27603531,-0.12256327,0.03188618,-0.39538285,-0.03154640,0.22731622,0.15006250,0.07272750,-0.11968371,0.10177510,-0.08420941,-0.10546427,0.00516235,0.13539179,-0.06564341,0.27672929,0.06762187,0.03406405,0.08602766,-0.05058035,-0.23066522,0.35150602,0.07151462,0.04341026,0.04071586,0.05773405,0.05950460,0.06568435,-0.17428401,-0.37069121,0.17605993,-0.05783848,-0.43567818,-0.07834265,0.04554078,0.04780732,-0.02561728,0.10449310,0.17359960,0.23091009,0.33209884,0.17741439,-0.22297613,-0.30936700,-0.20751345,-0.11637799,-0.07978090,0.00780420,-0.10597888,-0.16626829,-0.13199304,-0.05340878,-0.07685094,0.04318053,-0.19358803,0.04739057,0.13681962,-0.12629791,-0.11734945,-0.06761144,0.23278804,0.01708712,-0.25543803,0.31052655,0.05362649,-0.05255137,0.40112475,0.18927595,0.05058854,-0.52263504,-0.62854940,-0.25670373,-0.59941691,-0.67060983,-0.01622465,-0.08422638,-0.39110175,0.08014677,0.12931244,-0.03949934,-0.24137461,-0.13012296,0.12752746,-0.09224150,-0.02352603,0.19098641,0.00902121,0.25748119,0.27184978,0.16780582,-0.22692619,0.15004246,-0.11221671,-0.30480349,-0.04094563,-0.23087321,-0.08399925,-0.16855866,0.24894613,-0.00313218,0.11694934,0.19075935,-0.14763738,0.14135298,0.04687800,-0.44541177,-0.31584120,-0.24547274,0.06296870,0.06517516,0.07711973,0.09565158,0.14389993,-0.00175616,0.18556233,-0.17910986,0.01144087,-0.18486886,-0.23261878,-0.12345510,-0.26732081,-0.08853897,-0.00521606,0.16886592,0.13289827,0.28468591,0.25788838,0.04734078,-0.00343307,0.15549223,0.21112038,0.06301141,0.02795964,-0.08868178,0.18346034,-0.20808202,-0.02059382,-0.01574628,0.25010815,-0.05469446,0.05490759,0.07344779,-0.25395071,-0.10639602,0.13380262,-0.12017317,-0.03087682,0.07579975,-0.08433491,-0.00356436,-0.15480018,0.08132456,0.23325960,-0.13187009,-0.02642269,0.10799929,-0.09708273,-0.18053035,-0.14043695,0.10984112,-0.04347360,0.06682827,-0.09552246,0.04917543,-0.06136070,0.07755430,0.05399168,-0.24203411,-0.19022033,0.07535791,-0.16852440,0.13259746,0.29465333,-0.08109242,0.09244017,0.12138344,-0.11848886,-0.00009819,-0.04315295,0.03985303,0.00219329,-0.11425535,0.14874648,0.15293309,-0.08831528,0.11460792,0.00124678,0.19977014,-0.10331102,0.21305515,0.06863002,-0.14337891,-0.14405759,0.13914219,-0.16322409,0.01627777,0.02740594,-0.05110423,-0.08636547,-0.39130518,-0.13428962,0.01445080,-0.27500996,-0.03928757,-0.03842253,0.73706227,0.36897689,0.11647204,0.45560598,0.07467268,-0.65175813,-0.43261081,-0.44645286,0.02495597,0.17555647,-0.12870435,-0.15080133,-0.07448649,-0.20147258,-0.04315968,0.14890105,-0.20051685,-0.04448438,0.16944747,0.09436204,0.20092237,-0.04813549,0.00499169,0.06306314,-0.10025673,0.00387014,0.24995667,0.17366642,0.18527803,0.03997991,-0.00980762,0.16212060,0.24050169,0.20566252,0.27675036,-0.23458576,0.02740544,0.05116188,-0.24956255,-0.06421165,0.04170721,-0.24174427,0.15859730,-0.03925071,0.15096881,0.20878395,-0.20454512,-0.03868444,0.00411751,-0.14037406,0.06693307,-0.01984995,-0.01813077,0.07600588,-0.12078782,0.02585334,0.08277752,0.18961288,0.30571359,0.14007021,-0.03143127,0.16368520,0.17149582,0.02959167,-0.02885456,-0.02258885,0.02839857,-0.04914761,-0.00630096,0.07448331,0.02890932,-0.23248690,-0.00588140,-0.08629825,-0.00858227,0.10778786,-0.11792847,-0.02906443,0.31214824,0.05069795,-0.18525919,0.08740482,-0.07094318,0.32880601,0.17621090,-0.01748621,0.27545306,-0.02421196,-0.15670782,0.13713191,-0.01923433,0.13264936,-0.11021101,-0.10448474,-0.07270200,-0.14400224,-0.33841074,-0.12614833,-0.11285738,-0.09779328,-0.14698832,0.05567335,0.03432443,-0.14225102,0.06962820,0.01497411,-0.03740738,-0.19658291,0.02009568,0.12352434,0.02638822,0.09183794,0.09672053,0.20508042,0.03438854,0.24638994,-0.27756262,-0.22808145,-0.18482466,0.05495759,0.01176502,-0.09133961,0.01908068,-0.06513479,-0.05013555,-0.14637719,-0.38597092,-0.39300844,-0.22652680,-0.45673031,-0.42836016,-0.13825268,-0.30853853,-0.27767769,0.36310771,0.32421610,0.12659660,-0.13876171,-0.21855913,-0.16414946,-0.44029969,-0.45507821,-0.16556269,-0.25593188,-0.42285720,0.32273093,-0.61816496,-0.69002187,-0.17193358,-0.09011713,-0.31530395,0.41267943,-0.33801568,-0.02872388,0.01933737,-0.36866489,0.19941936,-0.00205459,-0.18344688,-0.15297830,-0.27251711,0.15389132,0.40993789,-0.11964493,-0.30937260,0.01428040,-0.17931122,-0.34920621,-0.18817110,-0.08217809,0.00954531,-0.09246794,0.08378674,0.17010899,-0.02002182,0.06451522,0.19804816,-0.18549029,-0.03612169,0.12443515,-0.01730312,0.19776294,-0.12655030,-0.19747216,-0.17038956,-0.10524584,-0.09068220,-0.29637477,-0.09501837,0.25464919,0.18084925,0.14743407,0.18677391,0.14825031,0.23954615,0.10557032,0.04888394,0.13525800,0.12405653,0.11062703,-0.06130314,0.22798632,0.14197597,0.15143912,0.23670389,0.16163357,-0.40588635,-0.20407550,-0.02709254,-0.34585401,0.03077386,0.39994043,-0.40602583,0.23205358,0.70956785,0.11545581,-0.10969948,0.09294675,0.09143838,-0.27771148,-0.16066678,-0.27651140,-0.03076405,-0.19443671,-0.09466724,-0.14169608,-0.19219849,0.11710411,-0.28798786,-0.09248618,0.17116377,-0.02799774,-0.02673425,-0.00003242,-0.06990700,0.14299713,-0.20900512,-0.02508764,0.29329902,-0.16614115,-0.05843742,0.26573953,0.03422628,-0.02698323,-0.01801593,-0.14740147,-0.08903418,0.01594402,0.11120272,-0.07661769,-0.15012179,0.26387948,-0.08836537,0.06974468,-0.09096013,0.14256148,-0.26141208,-0.38837287,0.04077059,-0.19056824,0.11853121,-0.03358213,0.06781926,-0.13784398,0.22586612,0.06116949,0.15294078,-0.09457712,-0.08825854,-0.11156782,-0.05797289,-0.03963878,0.06633382,0.17021146,0.08273165,-0.15224163,0.01925854,0.22068126,-0.30633926,-0.00058796,-0.02093831,0.05496520,0.38659805,-0.00579800,-0.05550500,0.22574556,-0.15308554,0.60050064,-0.09240964,-0.47921121,0.29207748,-0.19176354,-0.33419162,-0.35090184,-0.35748130,0.00269055,0.00514879,0.23914377,0.06938837,0.01500749,-0.00717122,-0.09692178,0.01512685,0.13032821,0.13807549,0.03129950,-0.23935516,-0.13248526,0.05960366,-0.03999756,0.07076997,-0.12985426,-0.40149441,0.18639647,0.13044392,-0.15920217,0.27265286,-0.34626970,-0.06640201,-0.12112583,0.02852599,-0.29419395,-0.14424652,-0.17142409,0.30932090,0.60051382,0.03110660,-0.16369197,0.01398090,0.28469607,-0.17924276,0.07302348,-0.13264500,-0.00026838,-0.02958270,0.03247995,0.21114841,0.03752840,-0.20074707,-0.14891070,-0.21383520,-0.00868703,0.08969739,0.05909485,-0.21290101,-0.07304022,-0.28557235,-0.40839985,-0.30643302,0.01737534,0.20552815,0.05276062,-0.17933944,-0.06994580,-0.15693487,-0.11920854,0.27786338,-0.11587557,-0.02577049,-0.12144591,-0.02957462,-0.20605940,-0.03986649,-0.12648723,-0.22211944,-0.15866748,-0.23451674,0.10762896,0.27665389,-0.18976000,0.22981743,-0.31054124,-0.07148227,-0.24403979,0.21922517,0.14609939,-0.14410396,0.04945901,-0.10512294,-0.09155355,-0.27675024,0.20906168,-0.31624898,0.08817364,-0.08931388,0.08837891,-0.16314024,0.23304442,0.13174415,-0.11906819,-0.17513464,-0.19771455,-0.38383895,-0.32353437,-0.12552232,-0.11685920,-0.32324967,0.03885431,0.12748563,0.04070637,-0.09546873,-0.07821568,-0.10556048,-0.02757496,0.04205341,-0.21983700,0.06322088,0.08611958,0.21926178,-0.08684762,-0.20072565,0.09103201,-0.13373545,-0.03579070,-0.19634104,-0.40113699,-0.15427527,0.04506547,-0.15891774,-0.24490167,-0.20301335,-0.27851260,0.15853649,-0.22546743,-0.26210856,-0.14652817,-0.48081267,-0.25807962,-0.14343050,-0.35957637,-0.00008679,0.16935828,0.19883370,0.09083862,0.12729664,-0.13914660,-0.30040315,0.28695479,-0.04154545,-0.06627105,-0.16906044,0.03669292,-0.04059146,0.01160784,0.47177893,-0.09494714,-0.05735980,0.12760553,-0.35324907,-0.29545459,-0.08059474,-0.12034870,-0.20321655,0.21123058,-0.09282205,0.00353002,0.20778503,-0.05691030,-0.29254627,-0.23013511,-0.43602112,-0.06278302,-0.00671366,-0.01167899,-0.15673226,-0.25903371,-0.15208721,0.01979506,0.05260459,0.09358866,0.34429428,0.25760806,0.09846782,0.35398743,0.20173095,0.00157269,0.06229267,0.11160198,-0.03115839,-0.08771610,0.21843979,0.06473540,-0.21281001,-0.10455497,-0.01212524,-0.06064567,-0.24057557,0.03065792,0.02343011,0.12822393,-0.06965824,0.10763037,0.17076760,0.05728081,0.16834465,-0.01327719,0.09375159,0.29316622,0.24121088,0.11064579,0.25522405,0.09983674,-0.07895224,0.00803041,-0.14467569,-0.26601389,-0.19005182,-0.24705923,-0.15589072,-0.13892294,-0.17526989,-0.03551509,-0.16269755,0.08443417,-0.00780526,0.02737854,0.04500931,-0.09695463,0.19139005,-0.09326714,-0.13153449,0.20294569,-0.04441559,-0.19760771,-0.34254059,-0.11681149,-0.17652246,-0.28911045,-0.23447803,0.13711303,0.44752958,-0.05133295,0.05456636,0.03320027,0.28295219,-0.03469768,0.01515260,-0.17865398,-0.05374864,-0.02622469,-0.12464067,-0.13821963,-0.07104196,-0.07539722,-0.02966060,0.01457610,-0.15094790,-0.13664037,0.12551974,0.08450637,0.24238454,-0.07434709,0.17155181,-0.04426968,0.03898597,0.03243780,0.05760104,0.00766120,0.08888692,-0.10976774,0.17587505,-0.00838747,-0.10323464,0.17755802,0.00326049,-0.13845533,-0.11507393,0.15973020,0.14331770,-0.10079602,-0.12784667,-0.12142017,-0.27647501,0.02984243,-0.02827155,-0.18441267,-0.27939606,-0.05435483,0.11644167,0.10398728,0.03356480,-0.58278656,-0.51734930,0.17119996,0.03675847,-0.21729338,-0.05715217,0.09593268,0.12301301,0.07088891,-0.07900866,0.14099285,0.38986737,0.14663182,-0.39501748,-0.15813237,-0.04506503,0.05216753,-0.15306230,0.02800921,0.06263857,-0.06137061,0.09149227,-0.01712421,0.06487057,0.14601584,0.21071747,0.10987948,-0.03644087,-0.12250939,-0.23288481,-0.12879553,-0.01295324,-0.10998277,0.09513059,0.42449966,-0.31307355,0.11608273,-0.53949970,-0.15721877,0.31621388,0.23532085,0.26053697,-0.13445273,-0.21454582,-0.11616325,0.02292863,0.13322578,0.20934750,0.21437426,0.02145421,0.10955695,-0.14665020,0.14793767,-0.28844994,-0.02234561,-0.10069481,-0.09735415,0.00408032,0.06110532,-0.02163235,0.10968635,0.21292318,0.28223866,0.27327263,0.13583191,0.21307553,-0.07238814,0.05564874,0.02097325,-0.14676179,0.05585831,-0.09700639,0.38734388,0.05846524,-0.14519146,-0.05940796,-0.23657103,-0.08459281,0.18503712,-0.21169941,-0.19469200,-0.05135797,-0.18839091,0.04153401,-0.03321269,-0.13520576,0.00977526,-0.07902138,0.21477146,0.04642682,-0.06484572,0.03945098,-0.15868413,0.13043642,-0.26352766,0.06572654,-0.00887632,-0.05879506,-0.04755912,-0.02518548,0.12088522,0.05342722,0.10041990,0.15053377,-0.11238953,0.02972188,-0.00936397,-0.10640821,0.11854218,0.10561533,-0.04501903,0.15405898,0.21117292,0.02291562,-0.22372523,-0.14196372,0.00991422,-0.14311986,0.01644563,-0.06038894,0.39351147,0.35740942,-0.01310593,0.07719760,0.07132322,-0.20567140,-0.29620182,0.03381317,-0.08703568,0.18487911,-0.03573681,-0.13179059,0.06917673,0.03326946,-0.06888869,-0.18907051,-0.29301339,-0.24479704,0.13966808,0.05693915,-0.09534906,0.24726197,0.16877659,0.10195737,-0.04532762,0.18711536,-0.14010531,-0.17181891,-0.12574369,-0.17127691,-0.28632948,0.00000585,-0.10613842,-0.23239796,0.22602980,0.01248692,0.11529952,-0.17677590,-0.15783498,0.14981440,-0.41804436,-0.11409749,0.17103846,-0.22752336,-0.14026390,0.28537121,-0.03784867,0.20675462,-0.01751745,-0.03830052,-0.07619596,-0.28591284,0.01026690,-0.11613161,-0.43581477,-0.33535132,-0.68543547,-0.17686302,0.36713588,0.05543571,-0.53035176,-0.38887689,-0.13207442,0.00497333,0.23206189,0.10037065,0.07912304,0.03918850,-0.07502299,-0.19764732,-0.19734883,-0.09582075,0.39095655,0.11865798,0.24289300,-0.25796336,-0.04565312,0.28385133,-0.05197570,-0.19291133,0.36449563,0.15338547,-0.16763787,-0.00902204,0.06404830,0.19671275,0.24557528,-0.12231975,-0.27390438,-0.30889124,-0.12337691,-0.28460023,-0.37156969,-0.04616400,0.04691577,0.12041620,-0.37445494,-0.38359162,-0.11447774,-0.09827426,0.03154400,0.00846763,0.21421239,0.41370437,-0.07248113,0.01306695,0.06535884,-0.17349273,-0.08666942,-0.18298505,0.04830735,-0.05233226,-0.17465510,-0.00437957,0.04904425,-0.03465436,-0.00869137,-0.29731646,-0.20018819,0.11151405,-0.38005272,-0.15049827,0.09424176,0.20174535,0.18723236,-0.12196810,0.08256922,-0.12683886,-0.10832337,0.12480049,0.28101471,0.10911083,-0.15359885,-0.14180106,0.01316468,0.27149952,-0.02537521,-0.11381196,-0.03865448,0.01177730,-0.09951667,-0.04799340,0.16041234,0.08482009,-0.26115829,0.06247048,-0.01232175,-0.23137146,-0.17232816,0.08740679,-0.09811258,0.02634192,-0.05240747,0.08505103,0.14957908,0.47198921,0.11744660,0.01315637,0.00515309,0.22316341,0.16799132,-0.01672971,-0.06149137,-0.12948029,-0.17113626,0.23885807,-0.10670673,-0.05986973,-0.05704363,0.03714883,0.03476156,-0.13537683,0.00750715,0.03635726,-0.07773934,-0.18844829,0.03893760,0.02038387,-0.02047382,-0.15014492,0.04251272,0.01746304,0.08621691,0.36329192,0.21062149,0.07867864,-0.26665720,-0.09656040,-0.03709498,-0.00696824,0.23851903,-0.12333954,-0.07755958,0.42793453,0.03487922,-0.19145490,-0.20080906,0.01397614,-0.00746443,-0.09769054,-0.17032534,0.10027171,-0.08663671,-0.08351211,0.10138601,0.20853251,0.07316055,-0.14646348,-0.09414408,-0.02103866,-0.12967089,-0.28992215,-0.09621760,0.02772679,-0.12918235,-0.08867832,-0.07739195,0.25377435,-0.04593538,0.07816125,0.43309748,0.05288947,-0.11333889,-0.15858208,0.05317687,-0.01383249,-0.11957097,0.12855041,-0.22112973,-0.17958289,0.12085628,-0.01991693,0.06750809,-0.06941834,-0.21104582,-0.08267534,0.07712880,-0.05051032,-0.16168745,0.03208344,-0.03684377,0.08785280,-0.16722155,-0.05771055,0.00870655,0.36889523,-0.23604988,-0.36709264,0.00172402,0.12630326,0.02277070,-0.17528950,0.16173801,0.03754256,-0.06865787,-0.04357408,0.00281720,0.09055569,-0.02667215,-0.08644733,-0.10923812,0.03705582,-0.03937941,0.06060645,-0.04474475,-0.09303125,-0.19525455,-0.00103488,0.15436019,-0.30475479,-0.18069603,0.09052005,0.21810791,-0.00825339,-0.16062273,0.04998019,0.12923279,0.05675849,-0.13638268,0.00438648,-0.12836832,0.20539668,-0.00754832,-0.13621451,0.14257044,-0.28329250,-0.06321411,0.12840504,-0.09945281,0.04352000,-0.18385744,-0.12151207,-0.07242919,-0.10090058,-0.28244919,0.06044943,0.02090870,0.38730162,0.05426049,-0.00393797,0.51078510,0.45518699,-0.05838653,-0.21506289,0.14741848,0.08743684,0.06976391,-0.02877255,0.12163838,0.15701632,-0.00374668,-0.04333713,0.05571973,-0.02775824,0.18063033,-0.17058819,0.11077689,-0.35983929,0.17318311,-0.03569174,-0.13203074,-0.04044120,-0.08624105,-0.01104613,-0.11502494,0.01928460,-0.08457949,0.04310498,-0.04847701,-0.12233505,-0.15641580,0.20632596,0.23167108,0.02866667,-0.13986033,0.00872809,-0.20745343,-0.26227397,-0.00527361,-0.00786894,-0.01681109,0.15752678,-0.07028247,0.07312571,0.06977773,-0.13386352,-0.25203136,-0.11629343,0.27848166,0.10764539,0.15455820,0.01970273,-0.00835627,0.00748245,-0.19117230,-0.11688304,-0.13872585,-0.07597833,-0.14917396,-0.09414846,-0.34050000,-0.20922904,0.02293595,-0.41212225,-0.41599637,0.00153825,0.01837836,-0.02543373,-0.00957300,-0.05599190,-0.17028309,0.03970800,-0.14837998,-0.34013867,0.07752872,0.41175482,0.02250973,-0.16651531,0.40629295,-0.03902667,-0.07806697,0.28843078,0.53912967,0.17892280,-0.27517682,-0.03890271,0.09626073,0.08166479,0.06897984,-0.12161267,-0.10714259,0.09851798,0.05106685,0.00222220,-0.19219714,-0.15529548,0.19080748,0.21324268,-0.13864698,0.39585745,0.39825070,0.00602509,-0.13875851,0.17005320,0.10514584,0.03963750,0.02341074,-0.01602047,0.12809889,0.24818958,-0.13887277,-0.15968730,-0.24949859,0.03478638,0.17409801,-0.07031333,0.09380020,0.07370297,-0.18668261,-0.01842302,-0.19265734,0.07501526,0.13768595,0.30505437,-0.16329040,-0.14692679,0.48032999,0.30744123,-0.28773221,-0.20004584,0.07522968,0.11257198,-0.27997103,-0.20438844,-0.01937589,-0.34366578,-0.38582128,-0.20695366,0.03541147,-0.08071668,0.07612672,-0.04556481,-0.00969025,0.45961600,0.09548389,-0.25968257,-0.30888316,0.20341182,0.17264304,-0.15650539,-0.04565020,0.12130714,-0.12707013,0.04401350,0.05808071,0.32474828,0.05106174,0.15726687,-0.04345550,-0.54948521,-0.02714945,0.09144746,-0.51102805,-0.48706910,-0.20799582,-0.00386611,0.01707447,0.00484187,-0.05720127,-0.07455950,-0.03232216,-0.04465207,0.05394464,-0.10857670,-0.16740988,0.14167972,0.16646244,-0.00929691,0.24617018,0.22589393,-0.08293024,-0.30639070,0.12233447,-0.00260580,-0.05900631,0.18196222,0.02094155,0.06119523,0.15711147,-0.15380700,-0.15022455,0.04030383,0.12749723,0.03267018,-0.03758105,-0.00684089,-0.48016200,0.18863353,0.12630738,0.08709959,-0.04491851,-0.07468069,0.18114609,0.28917867,0.14765954,-0.04407926,0.03195419,0.00651752,0.05744810,0.18943605,-0.06639937,-0.07780600,0.01989469,-0.04280048,-0.01197399,0.01706480,-0.23810543,-0.17184022,0.09756813,0.16731474,0.11275109,0.15786056,-0.15153626,0.01863862,0.04066863,-0.42224765,-0.23607682,0.08454090,0.03809494,-0.08151165,-0.07367124,0.02258608,0.00427300,0.23601882,-0.19095869,-0.16045050,-0.18987571,0.20689227,0.19035169,0.01326004,-0.04163484,-0.03134881,-0.12972917,0.03812186,0.19156359,0.03394063,-0.01400801,0.13238260,0.07944970,-0.00992627,-0.01655426,0.06326059,0.00801922,0.07459322,-0.04822523,-0.13172030,0.07544287,0.02427837,0.28012893,-0.13188089,-0.03056127,0.14454918,0.44359982,-0.03160693,-0.43632180,-0.20924532,0.15224452,-0.04609849,-0.12354495,-0.18391643,0.02263899,0.10484505,-0.00791909,-0.26203531,-0.08870810,0.08788192,-0.00023099,-0.01231679,-0.15659671,0.24680881,0.07720587,-0.25483176,0.16440441,0.24236353,0.00419588,0.02576182,0.27630034,-0.09440253,-0.10693048,0.14409077,0.08369496,-0.09117091,0.01268495,-0.24154779,-0.14948487,-0.22600187,0.34593779,0.04573183,-0.41760030,-0.04804755,0.04084066,0.33184716,-0.22383633,0.23729059,-0.03889525,-0.25756303,0.03918861,0.29214311,0.00995117,-0.13191782,0.00554599,0.04478316,-0.18287450,-0.04554072,0.04162227,0.10937490,-0.11832696,-0.05511370,0.24135905,-0.02194716,-0.17722343,0.27187723,-0.09059265,-0.05547721,0.14319679,0.07982521,-0.24250755,0.14770773,0.12865536,0.05142550,-0.37409294,0.14784369,-0.17982487,-0.25246227,-0.03660737,-0.00379215,-0.10906675,-0.08676118,0.06644535,0.11277389,-0.13609543,-0.19224226,0.24147473,0.17026217,0.01210755,0.08925623,0.14735338,-0.07849143,0.02813320,0.13840243,0.11612748,0.00181238,-0.26644912,0.22683735,0.00772725,-0.09702099,-0.00533804,-0.05804198,0.08880281,-0.01026575,0.19550669,0.02172768,-0.05946638,-0.01560169,-0.01240114,0.02607712,-0.33595756,-0.13114710,-0.08294963,-0.03479236,0.20497827,-0.08998562,-0.10528767,-0.06570449,0.12849800,0.11156373,-0.29517254,-0.12089939,0.24863774,-0.01497082,-0.21249765,0.20212270,0.13783073,-0.08167596,-0.24328954,-0.06510964,0.32554966,-0.25348654,-0.34289867,0.31823653,0.02727733,-0.00521727,0.25050268,-0.22046627,-0.11084751,0.18978046,-0.07646917,-0.24019493,-0.25026059,0.05358773,0.02013719,0.18776858,-0.23487760,-0.27234402,-0.27765340,-0.00984324,-0.10546699,-0.21306154,0.18693912,0.05202705,-0.20940860,0.05084976,-0.11719531,-0.19338992,-0.01541776,0.32606861,-0.11945941,-0.11496956,-0.00728040,-0.26141319,-0.36469486,0.34924975,0.24491587,0.10413748,0.02108148,0.09098166,-0.14672494,0.07997055,0.07035635,-0.26171202,-0.03213440,0.06539383,0.14490497,-0.01883770,0.00294463,-0.03187060,-0.04735714,-0.06578299,-0.49158585,-0.18385786,0.57025063,-0.12278703,-0.06010430,0.33842671,0.13649727,-0.17832618,0.09081975,0.22018492,0.19730052,-0.43440610,0.14895907,0.17630033,-0.23099755,-0.18927616,0.05113885,0.16182527,-0.01486130,0.33203775,-0.05027066,-0.24219246,0.17627774,0.24265076,-0.18776210,0.11449381,0.26083624,0.03993555,0.39096716,0.09929498,0.47546622,0.43096033,0.14933947,-0.10042458,0.15523489,-0.12134770,0.35075805,-0.57690334,-0.05126914,0.24024016,-0.39068553,-0.11435043,0.20232063,-0.31117874,-0.01292652,0.13886824,-0.02345932,0.01401643,0.07911647,-0.07669917,-0.16537256,0.12671515,-0.08285961,0.07682253,-0.02463942,0.27112281,0.13419670,-0.07089990,0.05911854,0.27119341,-0.32355884,0.11023629,-0.11676990,0.01150480,-0.03871977,0.16499141,0.05010293,-0.09196191,0.03133183,-0.25511628,-0.26483282,0.17120464,-0.39320433,0.09210147,0.22272390,-0.18046622,-0.26582831,0.16596605,-0.24913990,-0.13324091,0.05112514,0.36618999,0.03830205,0.28832594,-0.00672897,0.16507575,-0.29872769,0.00208745,-0.09495400,-0.02943006,-0.22948758,0.07240342,0.10887257,-0.30882368,-0.11315782,0.00458323,0.11648859,-0.08330607,0.16112007,0.04255506,-0.00373785,0.01087205,0.13338889,-0.20146449,0.03096280,0.17569545,-0.02819345,0.10398991,-0.28243256,-0.29994547,-0.30201268,-0.03860575,-0.20769326,-0.06218628,0.16653942,0.01771131,-0.16090344,0.03221527,-0.06787335,0.03591121,0.04350440,-0.03481933,-0.23341866,-0.17017677,0.01791971,0.14611201,-0.35279441,-0.11304446,-0.09922504,0.14925434,-0.00319437,-0.21486850,-0.03082041,-0.09667556,0.17401627,0.25558627,0.28961006,0.02636262,0.06912254,0.35206616,0.11226211,-0.12070697,0.08400186,-0.13768257,-0.34635225,0.16992283,0.42394707,-0.19855215,-0.04551374,0.08153818,0.14947218,-0.00965369,-0.13882166,0.11704770,-0.20839521,-0.11731335,0.09090383,-0.13454713,-0.19290787,0.09710528,-0.10536278,0.01158945,0.56501436,-0.01371328,-0.20698908,0.06337593,0.09277134,0.18852842,-0.09424288,-0.11393268,-0.04062968,-0.48741996,-0.30650848,-0.18213680,0.16714349,-0.21141791,0.06097773,-0.30145132,-0.23337817,0.08357625,0.19282637,-0.09953053,0.00873787,0.10280620,-0.18754649,-0.20141178,0.28129283,-0.28132933,0.07533583,0.06713249,-0.14710128,-0.30196339,-0.04656018,-0.01075680,-0.30183184,0.01953266,-0.07935932,-0.02769787,0.02588792,-0.26340470,-0.10004470,-0.19088760,-0.06090545,-0.03872052,0.11323826,0.00508286,0.15373017,-0.14059372,-0.24054594,-0.23794527,0.04293310,-0.04197547,0.12145949,0.03408664,0.00966470,0.09615929,-0.33165920,0.08710097,0.23866993,0.02045351,-0.00304785,-0.15655488,-0.08360756,0.09752091,0.01552083,-0.00072196,0.06975523,0.13423727,-0.26124418,0.02046232,0.18399634,-0.12827243,-0.24958324,0.08626993,-0.25672382,-0.01308242,0.13022608,0.02827881,0.22653040,0.07383557,0.03657495,-0.00935221,-0.04081535,-0.00291406,-0.22819361,0.02682630,-0.09434333,0.25348082,-0.29819021,0.01401720,0.21644142,-0.22033475,0.01199862,0.01219090,0.40965137,-0.05686407,-0.11297693,0.23790841,-0.30251139,-0.06680291,0.09290907,0.32962242,0.15448408,-0.11511809,0.11852602,0.03430286,0.33806452,0.15600569,0.07696990,-0.17140441,-0.52208966,-0.20142740,-0.16041037,-0.03433433,-0.11539790,-0.24267681,0.14303562,-0.32153475,-0.17757629,0.19195792,-0.17143911,-0.35582703,0.12624727,-0.08638033,-0.28070208,0.06057081,0.11585206,0.14100678,-0.08598199,-0.04536766,0.08754226,-0.21680114,-0.09002193,0.18993691,-0.30788872,-0.04473334,0.35891235,-0.21384250,-0.15788186,-0.24013408,-0.14212102,-0.34042522,0.03286844,0.01308214,-0.08266673,-0.14824441,-0.36438188,-0.09540503,0.07877715,-0.24538818,0.08093587,-0.02216460,-0.29112998,0.01412395,-0.00822453,0.06671993,0.07317987,0.09608556,0.09866508,-0.05613461,-0.11750968,-0.11148269,-0.06306651,-0.01185460,-0.16919391,-0.12306509,0.11864805,-0.26292869,0.15158273,0.17549463,-0.30855733,-0.25998226,0.25915554,-0.17399886,-0.16100931,-0.02270376,0.06823797,-0.00217322,-0.18685879,0.22214217,0.04646985,-0.04876968,0.11750901,-0.15081720,-0.09893095,0.13147788,0.36107859,0.16228968,0.04495526,0.17930345,-0.00955960,0.05995918,-0.06199782,-0.26511017,-0.03303231,-0.15902759,-0.30787450,-0.01376806,0.14258085,0.03084321,-0.27214646,-0.49037939,0.01937343,-0.06402974,-0.42638302,0.06108207,0.12592600,-0.16608216,0.23005933,-0.08237754,-0.16393004,-0.11611096,-0.13166574,-0.20911553,0.13489050,0.12245887,0.13213520,0.21299270,0.02859381,0.22057858,0.09050535,-0.15193652,0.32670206,0.07869694,-0.19568531,-0.01864247,0.03546361,-0.22187959,-0.20775034,-0.11885906,-0.13996723,-0.04111014,-0.32792753,-0.35461420,-0.19082269,-0.19715545,0.04501321,0.23616052,0.06503451,-0.08479589,-0.12350372,0.15012085,0.10228328,0.08120690,-0.06609874,0.01744137,-0.29631370,-0.27746508,-0.02191030,-0.16884904,-0.24043165,0.05718774,-0.08530758,-0.23164734,-0.22576492,0.11226180,0.31252643,0.39862481,-0.02187088,-0.00494915,0.16831292,-0.15749194,-0.27263269,-0.28453362,0.03275209,0.13213478,0.07995480,0.11982247,0.02140379,-0.00960592,0.01978970,-0.11652110,0.01760847,-0.24663417,0.05997751,0.03741588,-0.15982886,-0.05079588,-0.01722214,-0.11140452,-0.24624501,0.35017201,0.27260062,-0.08961800,0.03783667,0.26388851,0.04036947,0.02835200,-0.01625488,-0.24359955,-0.13715543,-0.10864513,-0.01711349,-0.32190660,0.05914845,0.34421939,0.04026297,-0.13194264,-0.05968891,0.32022828,0.15699735,-0.16149849,0.40697908,0.37928513,0.06535761,0.16868828,-0.22892670,-0.21099284,-0.50112361,-0.20381756,0.39188448,0.16760886,0.14689535,-0.18989405,-0.02339012,-0.16117047,-0.07547412,-0.07011808,0.04661331,0.06731177,0.04347169,0.12894361,0.00361981,-0.12883581,-0.07323819,0.14499180,0.06902958,-0.05029335,0.16613114,0.03494267,-0.20532568,-0.05099322,0.02894896,-0.03574618,-0.24642877,0.41311407,0.02121062,-0.02059715,0.09398384,0.17000508,-0.06491169,-0.19695106,0.02715932,0.13851513,-0.39223340,-0.21094918,0.27139282,-0.32241923,-0.14975393,0.29862106,-0.16092981,-0.10283398,-0.13768324,0.13021368,0.02547778,0.01229564,-0.00534779,0.02087216,0.00928282,0.07794322,-0.05411281,0.06977561,-0.03188997,-0.16392906,-0.34137291,0.15630248,0.11404917,0.04272841,0.02032436,-0.23683603,0.08345249,-0.17985798,-0.05660561,0.19704869,-0.50204086,-0.16349220,0.28753206,0.07370929,-0.17338555,-0.21531674,-0.39162317,-0.06808500,-0.05541700,-0.38450298,0.06331693,0.24383526,-0.16584477,0.18605263,-0.00858751,0.15331313,0.06845740,0.17413412,-0.10459387,-0.20311545,-0.00811901,0.27780676,-0.20536140,-0.04837519,-0.02892717,0.18051142,0.04795854,0.03796506,0.04702343,-0.35183570,0.29673287,0.42450759,0.00722493,0.29532123,0.54884279,-0.10299800,-0.13708822,0.26953304,0.15728107,-0.19606936,0.19287996,0.38551810,-0.20135397,0.07449529,0.03232972,0.06982391,0.26282179,0.43063843,-0.39920479,-0.31835020,-0.07429288,0.28609544,-0.12284865,-0.25047410,0.19228564,0.07311327,-0.29890668,0.05341087,-0.01959166,-0.04644624,-0.00241196,-0.00392243,-0.19819631,-0.02942062,0.10582047,0.51347649,-0.12714300,-0.33149850,0.10827042,-0.50583482,-0.05580482,0.06162709,-0.28840333,0.13469461,0.25456810,0.10604085,-0.24172208,-0.03228676,0.03964314,-0.24990770,-0.37029380,0.19736943,0.28928888,0.06433756,0.15536523,-0.04497433,0.28557408,0.04650983,0.03166405,-0.28902361,-0.17473464,-0.13348710,-0.20050050,0.08322973,0.20807588,0.03812778,-0.08830142,-0.15423206,-0.07705092,-0.35147074,-0.17474101,0.11821901,-0.12864450,-0.16264401,0.25179935,0.07976462,-0.03808327,0.16672017,-0.31848344,0.02321680,0.30415717,-0.36143291,-0.43328419,-0.12190839,-0.02477435,0.00454307,0.11861863,0.07539082,-0.17254658,-0.07886819,-0.02257154,-0.16634540,-0.30791196,0.46220472,0.03360031,-0.06833785,0.45715260,-0.07469114,0.06906912,0.08732436,-0.11422685,-0.09766885,-0.08735012,0.04145168,0.14282423,-0.60365492,-0.08072859,0.33426166,-0.25395352,-0.31291896,0.04705196,0.19077915,-0.02995194,-0.31547061,-0.09427202,-0.03791040,-0.34381854,0.06216399,0.19375880,0.01473546,0.38015196,0.00684669,-0.57003337,0.29608253,0.25477421,-0.22061865,0.14240436,0.44867447,0.17958938,-0.06204623,-0.06256852,0.32433602,-0.16459456,-0.32763603,0.04029579,-0.48608881,-0.60040891,-0.21153183,0.16825444,-0.03080560,-0.07839701,0.02691833,-0.02693692,-0.12188841,-0.04283907,-0.15409027,0.00245386,0.03727669,0.28305247,-0.03934158,-0.25891748,0.09178484,0.10863644,0.01473281,-0.15285182,0.12268381,0.26943839,-0.06520558,0.11055566,0.11306044,-0.08607618,-0.19951153,-0.20418532,-0.22476724,-0.16619420,0.13783859,-0.01024194,0.09445135,-0.27497119,-0.21386306,-0.21212034,0.07392380,0.03727917,-0.16778684,-0.13178821,0.26418140,0.23713009,-0.49817026,-0.15056074,0.39851898,-0.35923436,-0.49867517,0.11889043,0.23887652,-0.22903468,0.03968012,0.32705027,-0.08109497,0.19409899,-0.05596247,-0.19138594,-0.13444477,0.10209376,-0.01475167,-0.00474586,0.10153015,-0.00096644,-0.11840080,-0.05372038,-0.09058814,-0.06175592,-0.26871756,0.09061830,0.21723712,0.26332986,0.00759177,0.22815283,0.25550890,-0.14038132,0.00018861,0.12238800,-0.05643887,-0.07732890,0.06729069,-0.29978296,-0.14784622,0.20411097,-0.20632632,-0.36076727,-0.10396544,-0.36687037,-0.16131547,0.25752702,-0.02152917,-0.13107631,0.15127793,0.01918413,-0.02623221,-0.26967555,0.32191747,0.12148642,-0.46061283,-0.23929852,0.35405591,0.04414225,-0.40271413,0.34050387,0.19414002,-0.10778119,0.16224389,0.01523278,0.05997751,-0.04227450,0.03910845,-0.00012571,-0.26096419,0.07683603,0.10693892,-0.00323151,-0.22306319,-0.03200534,0.03831332,0.07635092,-0.12306004,0.06157507,0.21501237,0.04137858,-0.17001715,0.26466191,0.09415553,0.03363775,0.24962924,0.13982174,0.30896336,-0.07963593,-0.15170664,0.17220247,-0.12375038,-0.11973604,0.04807468,-0.10444657,-0.13787241,0.09273588,0.20607799,-0.02300386,0.01258606,-0.28140646,0.01536054,-0.06535035,-0.13840012,0.15189624,0.22498207,0.07831578,-0.01416879,-0.00527556,-0.03412348,-0.09697258,0.11870594,-0.09439204,-0.06955166,-0.00574147,-0.01629591,-0.01160877,-0.12187789,-0.20311132,0.11053767,0.14282101,-0.09787330,0.02874142,0.20376436,0.13982716,-0.01437339,0.07320538,0.01757619,-0.23614988,-0.05365387,0.21204466,0.15567790,-0.17574328,-0.14920150,-0.12747504,-0.36959198,-0.03421712,-0.09290782,-0.21138477,0.10487059,-0.10860643,0.04684378,-0.02946071,-0.04929332,0.05057754,-0.15410127,-0.24490902,0.10945937,-0.16134921,-0.30550516,-0.19765936,0.28315994,0.01467555,-0.37920958,0.18190193,-0.00289107,-0.27775893,0.11468109,0.11138336,-0.01497036,0.04277863,0.12022063,-0.01588570,0.05071533,0.30785793,-0.05787260,0.00106766,0.02923024,-0.09510721,-0.02411686,0.16955951,-0.04784956,-0.38408378,-0.23473534,-0.09437465,-0.07567276,-0.48908347,0.12268973,-0.35626811,-0.09593201,0.12960392,-0.30542242,-0.03044355,-0.16939823,-0.02124328,-0.03933774,-0.19699358,0.09037285,-0.14311290,-0.08041149,-0.13669641,-0.20378828,-0.09266469,0.07014959,-0.08667947,0.29421562,-0.30605790,-0.12728027,0.05771717,-0.43761909,-0.08836321,0.04102101,-0.21626708,-0.38827008,-0.39706093,-0.02978136,0.27669135,-0.09632218,0.06853329,0.21107975,-0.06150222,0.20097434,0.16919166,0.26485419,0.11477672,-0.03562069,-0.23491429,0.23655921,-0.01318176,-0.06311946,0.10472716,0.10089391,-0.11194665,0.18454951,0.01544781,0.21592368,-0.01810067,-0.13473325,0.21324274,0.33162907,0.07539947,0.26686472,-0.15943564,-0.01117773,0.08089789,-0.45142445,0.00365256,0.22881450,-0.04876516,-0.34704086,-0.10379858,-0.40064034,0.08468480,0.13699727,-0.33312419,-0.02023966,0.19447684,-0.13132670,-0.40440056,-0.12279336,-0.09671061,-0.15547240,-0.55811971,0.05058736,-0.11869466,-0.22945844,-0.20223467,-0.05662012,-0.08730448,-0.05760254,-0.16463818,0.13256998,-0.07790779,-0.12399633,0.07713600,0.03545450,-0.06436196,0.20903303,0.42412531,0.13997640,-0.55873519,0.04011226,0.26118728,-0.32917330,0.05339698,0.42504919,0.02352410,-0.01222442,0.29711878,0.18884216,-0.01794252,0.33569402,0.28715822,-0.00582668,-0.28374443,0.02046869,-0.19415083,0.10850393,0.13391584,0.13736576,0.09273922,0.00140623,0.10184222,0.15353075,0.14710446,-0.10838856,-0.16261463,-0.22522767,-0.20384014,-0.06935383,-0.07085107,-0.20301865,-0.03950797,-0.00681843,0.14567357,0.06266639,-0.00406817,-0.11446789,0.08168763,-0.19454745,-0.27326971,-0.02406692,-0.06770939,-0.24033467,-0.03182145,-0.06370273,-0.04922839,-0.13475692,-0.05008709,0.10111604,0.04721818,-0.17719077,-0.05119830,-0.04967117,0.10771168,0.11056203,-0.16236894,-0.22254412,0.11748844,0.15302365,0.00366932,-0.05750241,0.04576994,0.32564715,-0.28767282,-0.18234114,0.04422231,-0.23324108,-0.59369242,-0.12921093,-0.04166323,0.01992925,-0.08983779,0.02759738,0.05385638,0.00364913,-0.05558470,-0.08349244,-0.25793371,0.23590140,0.21403170,-0.02345182,-0.28675458,-0.03377423,-0.19032721,-0.27123010,0.12128227,0.29952881,-0.08652610,0.16058394,-0.01277478,0.18155229,0.29951721,0.25326478,0.17385919,0.25675121,0.16648118,0.04431209,-0.33079261,0.16671184,-0.20089570,-0.36140135,0.03338687,0.01059996,-0.29246995,0.13785575,0.27095607,-0.42827856,-0.18309896,0.18304144,-0.50604927,-0.13038881,0.15825664,-0.15714624,-0.16680673,-0.25322160,-0.46700361,0.09707506,0.00340871,-0.35239157,0.29683328,-0.05303761,-0.46803078,-0.15956140,0.08611996,0.03764329,0.01131899,0.07859987,-0.06164042,0.01817311,-0.20903036,0.11466462,-0.02094520,0.14276728,0.04111626,0.11556057,0.02662526,-0.00218100,0.18697970,-0.01531546,0.03472856,0.12137275,-0.09483825,-0.19762455,0.05570516,-0.08560443,-0.13853841,-0.01628983,0.24195430,-0.23665376,0.06188803,-0.07995997,-0.10548416,-0.28922710,0.00602196,-0.02962143,-0.00524527,-0.05852483,-0.13595572,-0.22887275,-0.18122046,-0.26106507,-0.35130298,0.02888047,-0.22769208,-0.29697028,0.28815037,0.15251765,-0.01762958,0.00862837,-0.27860722,-0.18472591,0.09128312,-0.53973412,-0.09637461,0.18232192,-0.21890681,-0.05457885,-0.14427750,0.02039947,0.11655994,-0.13624482,-0.24066791,0.08625339,-0.40960839,0.16976050,0.26124391,0.01443275,-0.06510790,-0.09126921,-0.07088565,-0.19175503,-0.02212636,0.02931894,-0.10692835,-0.00438234,0.06993634,0.03007912,-0.20909479,0.15236755,-0.17393784,-0.08805310,0.14988953,0.18197718,0.06621055,-0.05391841,-0.41557393,-0.15498778,-0.03994035,-0.56557906,-0.13031703,0.16341274,-0.16533862,0.03594320,-0.02475755,0.13303710,0.09490549,-0.03210119,0.12445652,-0.09624220,0.14012118,0.09057113,-0.06248784,-0.40729317,-0.04958457,-0.00302635,-0.19727823,-0.21779931,0.00086172,0.01557958,0.22700289,0.18746668,-0.00389856,-0.29297048,0.05412637,-0.06351497,-0.55777854,0.08554283,0.00799341,-0.18567792,-0.00380666,-0.10073408,-0.09342737,-0.10495725,0.00090443,0.05184134,-0.00136949,-0.33414969,-0.18819651,-0.14956422,-0.03042476,-0.20780025,0.05428618,-0.16498937,-0.13401467,0.05127850,-0.04019832,0.02723664,0.00671962,0.01272183,0.07792605,0.03155432,-0.14827110,-0.23034970,-0.11683793,0.09078956,-0.14375544,0.04807910,-0.12567084,-0.09807972,-0.08906735,0.00682362,0.05277650,0.10830128,-0.13940294,-0.01170390,-0.17129906,0.15219446,-0.33185938,-0.04410420,0.12772243,-0.47844213,0.00180786,-0.09017126,0.00969953,-0.12051110,0.04613467,-0.19411677,0.02188506,0.19102731,-0.03052830,-0.14886849,0.08299758,0.21751732,-0.18325321,0.11511019,0.03047080,0.16930085,-0.07742954,-0.07591205,0.03881835,-0.03123317,-0.19426157,-0.16245061,-0.11901861,-0.56432170,0.17854045,-0.22506683,-0.96499664,0.27603647,-0.07759839,-0.36422288,0.07912338,-0.08201458,0.06900167,0.15200684,-0.07264228,0.04285555,0.03572854,-0.10446007,-0.11607825,0.01414760,-0.01274270,0.09074625,0.40358758,0.01955767,-0.33034971,0.25254589,-0.06171304,-0.21963316,0.21306634,0.17993493,0.13962263,0.17726205,0.16826726,-0.12852094,0.23077041,0.06175545,-0.05954728,-0.08774219,-0.17347556,-0.15311319,0.12021252,-0.20819457,-0.33753023,0.19350535,-0.07547171,0.18045270,0.23687835,-0.08320367,0.07234182,0.15055515,0.05347315,-0.12108331,-0.08395669,0.12379617,0.00727011,-0.08850224,0.42136154,-0.49265513,-0.15528439,0.25316799,-0.59539765,-0.22671905,0.10559096,-0.01783182,0.03736382,-0.10004081,0.05068275,0.01560567,-0.22923501,-0.29249895,-0.06180663,-0.11860738,-0.22043191,0.10323518,0.11680151,-0.31067505,0.07684067,0.04631991,-0.17248742,0.02573077,0.37766293,0.16331261,0.05344153,0.10230490,-0.05594638,-0.13544141,0.00936176,-0.00432079,-0.17667498,0.15351972,0.31653851,-0.09901725,-0.01578304,-0.15663424,-0.01679748,-0.07290459,-0.06837586,0.06237454,0.02786231,0.05991466,-0.02141347,-0.02669809,-0.70679492,-0.29341614,0.46627462,-0.37727296,-0.12922208,0.20708282,-0.22547178,-0.42280364,-0.15507703,-0.13651152,0.13832243,-0.16869916,-0.24113530,0.08957993,-0.10943173,-0.00598164,0.25851572,0.02949765,-0.19639766,0.09947426,-0.01964269,-0.26135287,-0.07751331,0.23732771,0.00613830,0.17596006,0.14584865,0.12412256,0.03647143,0.18997204,0.05810570,-0.04116892,0.16589025,0.14949936,0.12059635,-0.41162088,-0.50677311,0.08423049,-0.19391215,-0.31804249,0.13331707,-0.27993423,-0.20284738,0.24864990,0.02996958,-0.21398787,-0.39591327,0.00819274,-0.26966962,-0.35658905,0.09640682,-0.07028656,-0.19159639,0.07720224,0.23593323,0.24158350,-0.04184002,0.07853524,0.20372684,-0.18884111,-0.03824054,0.08418766,-0.01373183,0.39156190,0.10305755,-0.02442539,0.12365598,0.03410967,-0.11403646,0.19272116,-0.07050288,0.04583778,-0.21338707,0.40913379,-0.14919025,-0.13091092,0.10631694,-0.13562533,0.32725748,0.01681786,0.24105515,-0.07305043,0.02293335,0.22685067,-0.40928152,-0.04134720,0.04253229,-0.34938258,-0.29748973,0.08519842,-0.11268391,0.02661978,0.08135222,0.02815573,-0.11289035,-0.12592635,0.13298294,-0.16917643,-0.35173938,-0.27244002,-0.05828341,-0.28952426,-0.28053966,0.25157434,-0.23319596,-0.03692394,0.13860290,-0.09029350,-0.03678733,0.07071323,-0.17550705,-0.00337500,0.11450362,-0.26580250,0.01253275,0.08648537,-0.14862835,0.03131368,-0.05493513,0.00300676,0.03891372,0.10142129,-0.14331159,-0.05793742,-0.02795968,0.35300109,-0.14463714,0.23017013,0.02642429,-0.20122819,0.08138053,0.07634421,0.13550298,0.05730722,0.16083399,-0.52947348,0.08543965,-0.08407478,-0.63488251,-0.18649910,0.16872984,-0.10489435,-0.33378184,0.14511144,-0.45042422,0.26606685,0.09528488,-0.58882606,0.20074744,0.17033614,-0.39566511,0.24393305,-0.02511517,0.08135486,0.08361939,-0.10980380,-0.09455856,-0.13232781,0.02514266,-0.23839107,-0.07945153,0.25498915,0.02059272,0.07692572,0.11138452,-0.16881873,-0.02083858,0.05108565,-0.34827632,0.03554711,0.03458756,0.13067170,0.11766274,0.02059623,0.15292981,-0.01275987,-0.33917180,0.28840047,-0.16107914,-0.22301125,-0.42094234,-0.16809536,-0.02637735,-0.43131581,0.03003181,0.12037208,-0.16896029,-0.16480859,-0.00206927,0.24894379,0.04370103,-0.00921411,-0.03952412,-0.02993990,0.10959823,0.04888620,-0.03958886,0.34147215,0.23566365,-0.24545275,0.26186731,-0.10166677,-0.24633022,